digraph Tree {
node [shape=box, style="filled, rounded", color="black", fontname=helvetica] ;
edge [fontname=helvetica] ;
0 [label=<Elevation &le; 2679.5<br/>gini = 0.857<br/>samples = 12000<br/>value = [1709, 1711, 1722, 1681, 1697, 1749, 1731]>, fillcolor="#ffffff"] ;
1 [label=<Elevation &le; 2369.5<br/>gini = 0.707<br/>samples = 5237<br/>value = [11, 184, 1613, 1681, 155, 1593, 0]>, fillcolor="#fbfffe"] ;
0 -> 1 [labeldistance=2.5, labelangle=45, headlabel="True"] ;
2 [label=<Hillshade_9am &le; 195.5<br/>gini = 0.6<br/>samples = 2918<br/>value = [0, 4, 743, 1585, 0, 586, 0]>, fillcolor="#b2f5f4"] ;
1 -> 2 ;
3 [label=<Horizontal_Distance_To_Hydrology &le; 15.0<br/>gini = 0.631<br/>samples = 986<br/>value = [0, 3, 426, 173, 0, 384, 0]>, fillcolor="#f1fdf3"] ;
2 -> 3 ;
4 [label=<Elevation &le; 2284.0<br/>gini = 0.261<br/>samples = 102<br/>value = [0, 0, 9, 87, 0, 6, 0]>, fillcolor="#59e9e7"] ;
3 -> 4 ;
5 [label=<Soil_Type10 &le; 0.5<br/>gini = 0.208<br/>samples = 96<br/>value = [0, 0, 8, 85, 0, 3, 0]>, fillcolor="#52e8e6"] ;
4 -> 5 ;
6 [label=<Elevation &le; 1967.5<br/>gini = 0.1<br/>samples = 77<br/>value = [0, 0, 2, 73, 0, 2, 0]>, fillcolor="#44e6e4"] ;
5 -> 6 ;
7 [label=<gini = 0.0<br/>samples = 1<br/>value = [0, 0, 0, 0, 0, 1, 0]>, fillcolor="#b139e5"] ;
6 -> 7 ;
8 [label=<Hillshade_Noon &le; 247.5<br/>gini = 0.077<br/>samples = 76<br/>value = [0, 0, 2, 73, 0, 1, 0]>, fillcolor="#41e6e3"] ;
6 -> 8 ;
9 [label=<Elevation &le; 2264.5<br/>gini = 0.028<br/>samples = 71<br/>value = [0, 0, 0, 70, 0, 1, 0]>, fillcolor="#3ce5e2"] ;
8 -> 9 ;
10 [label=<gini = 0.0<br/>samples = 68<br/>value = [0, 0, 0, 68, 0, 0, 0]>, fillcolor="#39e5e2"] ;
9 -> 10 ;
11 [label=<Hillshade_9am &le; 185.0<br/>gini = 0.444<br/>samples = 3<br/>value = [0, 0, 0, 2, 0, 1, 0]>, fillcolor="#9cf2f0"] ;
9 -> 11 ;
12 [label=<gini = 0.0<br/>samples = 2<br/>value = [0, 0, 0, 2, 0, 0, 0]>, fillcolor="#39e5e2"] ;
11 -> 12 ;
13 [label=<gini = 0.0<br/>samples = 1<br/>value = [0, 0, 0, 0, 0, 1, 0]>, fillcolor="#b139e5"] ;
11 -> 13 ;
14 [label=<Aspect &le; 249.0<br/>gini = 0.48<br/>samples = 5<br/>value = [0, 0, 2, 3, 0, 0, 0]>, fillcolor="#bdf6f5"] ;
8 -> 14 ;
15 [label=<gini = 0.0<br/>samples = 3<br/>value = [0, 0, 0, 3, 0, 0, 0]>, fillcolor="#39e5e2"] ;
14 -> 15 ;
16 [label=<gini = 0.0<br/>samples = 2<br/>value = [0, 0, 2, 0, 0, 0, 0]>, fillcolor="#39e54d"] ;
14 -> 16 ;
17 [label=<Aspect &le; 346.5<br/>gini = 0.499<br/>samples = 19<br/>value = [0, 0, 6, 12, 0, 1, 0]>, fillcolor="#a4f3f2"] ;
5 -> 17 ;
18 [label=<Hillshade_3pm &le; 190.5<br/>gini = 0.357<br/>samples = 14<br/>value = [0, 0, 2, 11, 0, 1, 0]>, fillcolor="#6bece9"] ;
17 -> 18 ;
19 [label=<Hillshade_9am &le; 192.0<br/>gini = 0.153<br/>samples = 12<br/>value = [0, 0, 0, 11, 0, 1, 0]>, fillcolor="#4be7e5"] ;
18 -> 19 ;
20 [label=<gini = 0.0<br/>samples = 10<br/>value = [0, 0, 0, 10, 0, 0, 0]>, fillcolor="#39e5e2"] ;
19 -> 20 ;
21 [label=<Horizontal_Distance_To_Fire_Points &le; 888.0<br/>gini = 0.5<br/>samples = 2<br/>value = [0, 0, 0, 1, 0, 1, 0]>, fillcolor="#ffffff"] ;
19 -> 21 ;
22 [label=<gini = 0.0<br/>samples = 1<br/>value = [0, 0, 0, 1, 0, 0, 0]>, fillcolor="#39e5e2"] ;
21 -> 22 ;
23 [label=<gini = 0.0<br/>samples = 1<br/>value = [0, 0, 0, 0, 0, 1, 0]>, fillcolor="#b139e5"] ;
21 -> 23 ;
24 [label=<gini = 0.0<br/>samples = 2<br/>value = [0, 0, 2, 0, 0, 0, 0]>, fillcolor="#39e54d"] ;
18 -> 24 ;
25 [label=<Horizontal_Distance_To_Fire_Points &le; 448.5<br/>gini = 0.32<br/>samples = 5<br/>value = [0, 0, 4, 1, 0, 0, 0]>, fillcolor="#6aec79"] ;
17 -> 25 ;
26 [label=<gini = 0.0<br/>samples = 1<br/>value = [0, 0, 0, 1, 0, 0, 0]>, fillcolor="#39e5e2"] ;
25 -> 26 ;
27 [label=<gini = 0.0<br/>samples = 4<br/>value = [0, 0, 4, 0, 0, 0, 0]>, fillcolor="#39e54d"] ;
25 -> 27 ;
28 [label=<Horizontal_Distance_To_Roadways &le; 1263.5<br/>gini = 0.611<br/>samples = 6<br/>value = [0, 0, 1, 2, 0, 3, 0]>, fillcolor="#eccef8"] ;
4 -> 28 ;
29 [label=<Hillshade_3pm &le; 181.5<br/>gini = 0.444<br/>samples = 3<br/>value = [0, 0, 1, 2, 0, 0, 0]>, fillcolor="#9cf2f0"] ;
28 -> 29 ;
30 [label=<gini = 0.0<br/>samples = 2<br/>value = [0, 0, 0, 2, 0, 0, 0]>, fillcolor="#39e5e2"] ;
29 -> 30 ;
31 [label=<gini = 0.0<br/>samples = 1<br/>value = [0, 0, 1, 0, 0, 0, 0]>, fillcolor="#39e54d"] ;
29 -> 31 ;
32 [label=<gini = 0.0<br/>samples = 3<br/>value = [0, 0, 0, 0, 0, 3, 0]>, fillcolor="#b139e5"] ;
28 -> 32 ;
33 [label=<Soil_Type17 &le; 0.5<br/>gini = 0.585<br/>samples = 884<br/>value = [0, 3, 417, 86, 0, 378, 0]>, fillcolor="#f0fdf1"] ;
3 -> 33 ;
34 [label=<Horizontal_Distance_To_Fire_Points &le; 590.0<br/>gini = 0.557<br/>samples = 835<br/>value = [0, 3, 406, 50, 0, 376, 0]>, fillcolor="#f2fdf3"] ;
33 -> 34 ;
35 [label=<Horizontal_Distance_To_Roadways &le; 1231.5<br/>gini = 0.511<br/>samples = 321<br/>value = [0, 3, 203, 22, 0, 93, 0]>, fillcolor="#9ff2a9"] ;
34 -> 35 ;
36 [label=<Soil_Type3 &le; 0.5<br/>gini = 0.463<br/>samples = 277<br/>value = [0, 3, 193, 22, 0, 59, 0]>, fillcolor="#85ef92"] ;
35 -> 36 ;
37 [label=<Hillshade_9am &le; 173.0<br/>gini = 0.427<br/>samples = 267<br/>value = [0, 3, 193, 12, 0, 59, 0]>, fillcolor="#7fee8c"] ;
36 -> 37 ;
38 [label=<Horizontal_Distance_To_Hydrology &le; 87.5<br/>gini = 0.272<br/>samples = 175<br/>value = [0, 0, 147, 2, 0, 26, 0]>, fillcolor="#5eea6e"] ;
37 -> 38 ;
39 [label=<Horizontal_Distance_To_Roadways &le; 238.0<br/>gini = 0.481<br/>samples = 51<br/>value = [0, 0, 32, 1, 0, 18, 0]>, fillcolor="#abf4b3"] ;
38 -> 39 ;
40 [label=<Wilderness_Area3 &le; 0.5<br/>gini = 0.111<br/>samples = 17<br/>value = [0, 0, 16, 0, 0, 1, 0]>, fillcolor="#45e758"] ;
39 -> 40 ;
41 [label=<gini = 0.0<br/>samples = 16<br/>value = [0, 0, 16, 0, 0, 0, 0]>, fillcolor="#39e54d"] ;
40 -> 41 ;
42 [label=<gini = 0.0<br/>samples = 1<br/>value = [0, 0, 0, 0, 0, 1, 0]>, fillcolor="#b139e5"] ;
40 -> 42 ;
43 [label=<Horizontal_Distance_To_Roadways &le; 764.0<br/>gini = 0.528<br/>samples = 34<br/>value = [0, 0, 16, 1, 0, 17, 0]>, fillcolor="#fbf4fe"] ;
39 -> 43 ;
44 [label=<Hillshade_Noon &le; 172.5<br/>gini = 0.431<br/>samples = 21<br/>value = [0, 0, 5, 1, 0, 15, 0]>, fillcolor="#ce83ef"] ;
43 -> 44 ;
45 [label=<Elevation &le; 2174.5<br/>gini = 0.611<br/>samples = 6<br/>value = [0, 0, 3, 1, 0, 2, 0]>, fillcolor="#cef8d2"] ;
44 -> 45 ;
46 [label=<Horizontal_Distance_To_Roadways &le; 534.0<br/>gini = 0.375<br/>samples = 4<br/>value = [0, 0, 3, 1, 0, 0, 0]>, fillcolor="#7bee88"] ;
45 -> 46 ;
47 [label=<gini = 0.0<br/>samples = 1<br/>value = [0, 0, 0, 1, 0, 0, 0]>, fillcolor="#39e5e2"] ;
46 -> 47 ;
48 [label=<gini = 0.0<br/>samples = 3<br/>value = [0, 0, 3, 0, 0, 0, 0]>, fillcolor="#39e54d"] ;
46 -> 48 ;
49 [label=<gini = 0.0<br/>samples = 2<br/>value = [0, 0, 0, 0, 0, 2, 0]>, fillcolor="#b139e5"] ;
45 -> 49 ;
50 [label=<Elevation &le; 2041.0<br/>gini = 0.231<br/>samples = 15<br/>value = [0, 0, 2, 0, 0, 13, 0]>, fillcolor="#bd57e9"] ;
44 -> 50 ;
51 [label=<gini = 0.0<br/>samples = 1<br/>value = [0, 0, 1, 0, 0, 0, 0]>, fillcolor="#39e54d"] ;
50 -> 51 ;
52 [label=<Hillshade_Noon &le; 240.5<br/>gini = 0.133<br/>samples = 14<br/>value = [0, 0, 1, 0, 0, 13, 0]>, fillcolor="#b748e7"] ;
50 -> 52 ;
53 [label=<gini = 0.0<br/>samples = 13<br/>value = [0, 0, 0, 0, 0, 13, 0]>, fillcolor="#b139e5"] ;
52 -> 53 ;
54 [label=<gini = 0.0<br/>samples = 1<br/>value = [0, 0, 1, 0, 0, 0, 0]>, fillcolor="#39e54d"] ;
52 -> 54 ;
55 [label=<Soil_Type2 &le; 0.5<br/>gini = 0.26<br/>samples = 13<br/>value = [0, 0, 11, 0, 0, 2, 0]>, fillcolor="#5dea6d"] ;
43 -> 55 ;
56 [label=<Elevation &le; 2295.0<br/>gini = 0.153<br/>samples = 12<br/>value = [0, 0, 11, 0, 0, 1, 0]>, fillcolor="#4be75d"] ;
55 -> 56 ;
57 [label=<gini = 0.0<br/>samples = 11<br/>value = [0, 0, 11, 0, 0, 0, 0]>, fillcolor="#39e54d"] ;
56 -> 57 ;
58 [label=<gini = 0.0<br/>samples = 1<br/>value = [0, 0, 0, 0, 0, 1, 0]>, fillcolor="#b139e5"] ;
56 -> 58 ;
59 [label=<gini = 0.0<br/>samples = 1<br/>value = [0, 0, 0, 0, 0, 1, 0]>, fillcolor="#b139e5"] ;
55 -> 59 ;
60 [label=<Horizontal_Distance_To_Fire_Points &le; 565.0<br/>gini = 0.136<br/>samples = 124<br/>value = [0, 0, 115, 1, 0, 8, 0]>, fillcolor="#48e75b"] ;
38 -> 60 ;
61 [label=<Elevation &le; 2362.5<br/>gini = 0.087<br/>samples = 110<br/>value = [0, 0, 105, 1, 0, 4, 0]>, fillcolor="#42e655"] ;
60 -> 61 ;
62 [label=<Hillshade_3pm &le; 99.5<br/>gini = 0.072<br/>samples = 107<br/>value = [0, 0, 103, 0, 0, 4, 0]>, fillcolor="#41e654"] ;
61 -> 62 ;
63 [label=<Hillshade_Noon &le; 141.0<br/>gini = 0.375<br/>samples = 4<br/>value = [0, 0, 3, 0, 0, 1, 0]>, fillcolor="#7bee88"] ;
62 -> 63 ;
64 [label=<gini = 0.0<br/>samples = 3<br/>value = [0, 0, 3, 0, 0, 0, 0]>, fillcolor="#39e54d"] ;
63 -> 64 ;
65 [label=<gini = 0.0<br/>samples = 1<br/>value = [0, 0, 0, 0, 0, 1, 0]>, fillcolor="#b139e5"] ;
63 -> 65 ;
66 [label=<Aspect &le; 324.5<br/>gini = 0.057<br/>samples = 103<br/>value = [0, 0, 100, 0, 0, 3, 0]>, fillcolor="#3fe652"] ;
62 -> 66 ;
67 [label=<gini = 0.0<br/>samples = 65<br/>value = [0, 0, 65, 0, 0, 0, 0]>, fillcolor="#39e54d"] ;
66 -> 67 ;
68 [label=<Hillshade_3pm &le; 191.5<br/>gini = 0.145<br/>samples = 38<br/>value = [0, 0, 35, 0, 0, 3, 0]>, fillcolor="#4ae75c"] ;
66 -> 68 ;
69 [label=<Horizontal_Distance_To_Fire_Points &le; 226.0<br/>gini = 0.102<br/>samples = 37<br/>value = [0, 0, 35, 0, 0, 2, 0]>, fillcolor="#44e657"] ;
68 -> 69 ;
70 [label=<Hillshade_Noon &le; 194.0<br/>gini = 0.298<br/>samples = 11<br/>value = [0, 0, 9, 0, 0, 2, 0]>, fillcolor="#65eb75"] ;
69 -> 70 ;
71 [label=<gini = 0.0<br/>samples = 8<br/>value = [0, 0, 8, 0, 0, 0, 0]>, fillcolor="#39e54d"] ;
70 -> 71 ;
72 [label=<Soil_Type5 &le; 0.5<br/>gini = 0.444<br/>samples = 3<br/>value = [0, 0, 1, 0, 0, 2, 0]>, fillcolor="#d89cf2"] ;
70 -> 72 ;
73 [label=<gini = 0.0<br/>samples = 2<br/>value = [0, 0, 0, 0, 0, 2, 0]>, fillcolor="#b139e5"] ;
72 -> 73 ;
74 [label=<gini = 0.0<br/>samples = 1<br/>value = [0, 0, 1, 0, 0, 0, 0]>, fillcolor="#39e54d"] ;
72 -> 74 ;
75 [label=<gini = 0.0<br/>samples = 26<br/>value = [0, 0, 26, 0, 0, 0, 0]>, fillcolor="#39e54d"] ;
69 -> 75 ;
76 [label=<gini = 0.0<br/>samples = 1<br/>value = [0, 0, 0, 0, 0, 1, 0]>, fillcolor="#b139e5"] ;
68 -> 76 ;
77 [label=<Soil_Type6 &le; 0.5<br/>gini = 0.444<br/>samples = 3<br/>value = [0, 0, 2, 1, 0, 0, 0]>, fillcolor="#9cf2a6"] ;
61 -> 77 ;
78 [label=<gini = 0.0<br/>samples = 2<br/>value = [0, 0, 2, 0, 0, 0, 0]>, fillcolor="#39e54d"] ;
77 -> 78 ;
79 [label=<gini = 0.0<br/>samples = 1<br/>value = [0, 0, 0, 1, 0, 0, 0]>, fillcolor="#39e5e2"] ;
77 -> 79 ;
80 [label=<Horizontal_Distance_To_Roadways &le; 640.5<br/>gini = 0.408<br/>samples = 14<br/>value = [0, 0, 10, 0, 0, 4, 0]>, fillcolor="#88ef94"] ;
60 -> 80 ;
81 [label=<gini = 0.0<br/>samples = 8<br/>value = [0, 0, 8, 0, 0, 0, 0]>, fillcolor="#39e54d"] ;
80 -> 81 ;
82 [label=<Hillshade_3pm &le; 195.5<br/>gini = 0.444<br/>samples = 6<br/>value = [0, 0, 2, 0, 0, 4, 0]>, fillcolor="#d89cf2"] ;
80 -> 82 ;
83 [label=<gini = 0.0<br/>samples = 4<br/>value = [0, 0, 0, 0, 0, 4, 0]>, fillcolor="#b139e5"] ;
82 -> 83 ;
84 [label=<gini = 0.0<br/>samples = 2<br/>value = [0, 0, 2, 0, 0, 0, 0]>, fillcolor="#39e54d"] ;
82 -> 84 ;
85 [label=<Horizontal_Distance_To_Hydrology &le; 237.0<br/>gini = 0.608<br/>samples = 92<br/>value = [0, 3, 46, 10, 0, 33, 0]>, fillcolor="#d3f9d8"] ;
37 -> 85 ;
86 [label=<Hillshade_3pm &le; 133.0<br/>gini = 0.611<br/>samples = 61<br/>value = [0, 3, 21, 6, 0, 31, 0]>, fillcolor="#eccef8"] ;
85 -> 86 ;
87 [label=<Horizontal_Distance_To_Roadways &le; 801.5<br/>gini = 0.33<br/>samples = 24<br/>value = [0, 0, 5, 0, 0, 19, 0]>, fillcolor="#c66dec"] ;
86 -> 87 ;
88 [label=<Elevation &le; 2081.0<br/>gini = 0.236<br/>samples = 22<br/>value = [0, 0, 3, 0, 0, 19, 0]>, fillcolor="#bd58e9"] ;
87 -> 88 ;
89 [label=<Hillshade_9am &le; 187.5<br/>gini = 0.444<br/>samples = 3<br/>value = [0, 0, 2, 0, 0, 1, 0]>, fillcolor="#9cf2a6"] ;
88 -> 89 ;
90 [label=<gini = 0.0<br/>samples = 2<br/>value = [0, 0, 2, 0, 0, 0, 0]>, fillcolor="#39e54d"] ;
89 -> 90 ;
91 [label=<gini = 0.0<br/>samples = 1<br/>value = [0, 0, 0, 0, 0, 1, 0]>, fillcolor="#b139e5"] ;
89 -> 91 ;
92 [label=<Horizontal_Distance_To_Roadways &le; 567.0<br/>gini = 0.1<br/>samples = 19<br/>value = [0, 0, 1, 0, 0, 18, 0]>, fillcolor="#b544e6"] ;
88 -> 92 ;
93 [label=<gini = 0.0<br/>samples = 14<br/>value = [0, 0, 0, 0, 0, 14, 0]>, fillcolor="#b139e5"] ;
92 -> 93 ;
94 [label=<Hillshade_9am &le; 185.0<br/>gini = 0.32<br/>samples = 5<br/>value = [0, 0, 1, 0, 0, 4, 0]>, fillcolor="#c46aec"] ;
92 -> 94 ;
95 [label=<gini = 0.0<br/>samples = 4<br/>value = [0, 0, 0, 0, 0, 4, 0]>, fillcolor="#b139e5"] ;
94 -> 95 ;
96 [label=<gini = 0.0<br/>samples = 1<br/>value = [0, 0, 1, 0, 0, 0, 0]>, fillcolor="#39e54d"] ;
94 -> 96 ;
97 [label=<gini = 0.0<br/>samples = 2<br/>value = [0, 0, 2, 0, 0, 0, 0]>, fillcolor="#39e54d"] ;
87 -> 97 ;
98 [label=<Soil_Type5 &le; 0.5<br/>gini = 0.675<br/>samples = 37<br/>value = [0, 3, 16, 6, 0, 12, 0]>, fillcolor="#dffbe3"] ;
86 -> 98 ;
99 [label=<Horizontal_Distance_To_Roadways &le; 338.5<br/>gini = 0.665<br/>samples = 33<br/>value = [0, 3, 16, 6, 0, 8, 0]>, fillcolor="#c0f7c6"] ;
98 -> 99 ;
100 [label=<Vertical_Distance_To_Hydrology &le; 34.0<br/>gini = 0.612<br/>samples = 7<br/>value = [0, 3, 1, 0, 0, 3, 0]>, fillcolor="#ffffff"] ;
99 -> 100 ;
101 [label=<Horizontal_Distance_To_Fire_Points &le; 485.5<br/>gini = 0.56<br/>samples = 5<br/>value = [0, 1, 1, 0, 0, 3, 0]>, fillcolor="#d89cf2"] ;
100 -> 101 ;
102 [label=<Horizontal_Distance_To_Hydrology &le; 157.5<br/>gini = 0.375<br/>samples = 4<br/>value = [0, 0, 1, 0, 0, 3, 0]>, fillcolor="#cb7bee"] ;
101 -> 102 ;
103 [label=<gini = 0.0<br/>samples = 3<br/>value = [0, 0, 0, 0, 0, 3, 0]>, fillcolor="#b139e5"] ;
102 -> 103 ;
104 [label=<gini = 0.0<br/>samples = 1<br/>value = [0, 0, 1, 0, 0, 0, 0]>, fillcolor="#39e54d"] ;
102 -> 104 ;
105 [label=<gini = 0.0<br/>samples = 1<br/>value = [0, 1, 0, 0, 0, 0, 0]>, fillcolor="#b7e539"] ;
101 -> 105 ;
106 [label=<gini = 0.0<br/>samples = 2<br/>value = [0, 2, 0, 0, 0, 0, 0]>, fillcolor="#b7e539"] ;
100 -> 106 ;
107 [label=<Aspect &le; 232.0<br/>gini = 0.577<br/>samples = 26<br/>value = [0, 0, 15, 6, 0, 5, 0]>, fillcolor="#a6f3af"] ;
99 -> 107 ;
108 [label=<Elevation &le; 2189.5<br/>gini = 0.298<br/>samples = 11<br/>value = [0, 0, 9, 0, 0, 2, 0]>, fillcolor="#65eb75"] ;
107 -> 108 ;
109 [label=<gini = 0.0<br/>samples = 2<br/>value = [0, 0, 0, 0, 0, 2, 0]>, fillcolor="#b139e5"] ;
108 -> 109 ;
110 [label=<gini = 0.0<br/>samples = 9<br/>value = [0, 0, 9, 0, 0, 0, 0]>, fillcolor="#39e54d"] ;
108 -> 110 ;
111 [label=<Elevation &le; 2267.5<br/>gini = 0.64<br/>samples = 15<br/>value = [0, 0, 6, 6, 0, 3, 0]>, fillcolor="#ffffff"] ;
107 -> 111 ;
112 [label=<Hillshade_Noon &le; 203.5<br/>gini = 0.531<br/>samples = 8<br/>value = [0, 0, 5, 1, 0, 2, 0]>, fillcolor="#9cf2a6"] ;
111 -> 112 ;
113 [label=<Elevation &le; 2107.5<br/>gini = 0.5<br/>samples = 2<br/>value = [0, 0, 0, 1, 0, 1, 0]>, fillcolor="#ffffff"] ;
112 -> 113 ;
114 [label=<gini = 0.0<br/>samples = 1<br/>value = [0, 0, 0, 1, 0, 0, 0]>, fillcolor="#39e5e2"] ;
113 -> 114 ;
115 [label=<gini = 0.0<br/>samples = 1<br/>value = [0, 0, 0, 0, 0, 1, 0]>, fillcolor="#b139e5"] ;
113 -> 115 ;
116 [label=<Horizontal_Distance_To_Hydrology &le; 54.5<br/>gini = 0.278<br/>samples = 6<br/>value = [0, 0, 5, 0, 0, 1, 0]>, fillcolor="#61ea71"] ;
112 -> 116 ;
117 [label=<gini = 0.0<br/>samples = 1<br/>value = [0, 0, 0, 0, 0, 1, 0]>, fillcolor="#b139e5"] ;
116 -> 117 ;
118 [label=<gini = 0.0<br/>samples = 5<br/>value = [0, 0, 5, 0, 0, 0, 0]>, fillcolor="#39e54d"] ;
116 -> 118 ;
119 [label=<Hillshade_3pm &le; 194.5<br/>gini = 0.449<br/>samples = 7<br/>value = [0, 0, 1, 5, 0, 1, 0]>, fillcolor="#7beeec"] ;
111 -> 119 ;
120 [label=<gini = 0.0<br/>samples = 5<br/>value = [0, 0, 0, 5, 0, 0, 0]>, fillcolor="#39e5e2"] ;
119 -> 120 ;
121 [label=<Horizontal_Distance_To_Fire_Points &le; 361.0<br/>gini = 0.5<br/>samples = 2<br/>value = [0, 0, 1, 0, 0, 1, 0]>, fillcolor="#ffffff"] ;
119 -> 121 ;
122 [label=<gini = 0.0<br/>samples = 1<br/>value = [0, 0, 1, 0, 0, 0, 0]>, fillcolor="#39e54d"] ;
121 -> 122 ;
123 [label=<gini = 0.0<br/>samples = 1<br/>value = [0, 0, 0, 0, 0, 1, 0]>, fillcolor="#b139e5"] ;
121 -> 123 ;
124 [label=<gini = 0.0<br/>samples = 4<br/>value = [0, 0, 0, 0, 0, 4, 0]>, fillcolor="#b139e5"] ;
98 -> 124 ;
125 [label=<Elevation &le; 2328.0<br/>gini = 0.329<br/>samples = 31<br/>value = [0, 0, 25, 4, 0, 2, 0]>, fillcolor="#65eb75"] ;
85 -> 125 ;
126 [label=<Horizontal_Distance_To_Fire_Points &le; 157.5<br/>gini = 0.142<br/>samples = 26<br/>value = [0, 0, 24, 0, 0, 2, 0]>, fillcolor="#49e75c"] ;
125 -> 126 ;
127 [label=<gini = 0.0<br/>samples = 2<br/>value = [0, 0, 0, 0, 0, 2, 0]>, fillcolor="#b139e5"] ;
126 -> 127 ;
128 [label=<gini = 0.0<br/>samples = 24<br/>value = [0, 0, 24, 0, 0, 0, 0]>, fillcolor="#39e54d"] ;
126 -> 128 ;
129 [label=<Horizontal_Distance_To_Roadways &le; 1019.5<br/>gini = 0.32<br/>samples = 5<br/>value = [0, 0, 1, 4, 0, 0, 0]>, fillcolor="#6aece9"] ;
125 -> 129 ;
130 [label=<gini = 0.0<br/>samples = 4<br/>value = [0, 0, 0, 4, 0, 0, 0]>, fillcolor="#39e5e2"] ;
129 -> 130 ;
131 [label=<gini = 0.0<br/>samples = 1<br/>value = [0, 0, 1, 0, 0, 0, 0]>, fillcolor="#39e54d"] ;
129 -> 131 ;
132 [label=<gini = 0.0<br/>samples = 10<br/>value = [0, 0, 0, 10, 0, 0, 0]>, fillcolor="#39e5e2"] ;
36 -> 132 ;
133 [label=<Horizontal_Distance_To_Hydrology &le; 183.5<br/>gini = 0.351<br/>samples = 44<br/>value = [0, 0, 10, 0, 0, 34, 0]>, fillcolor="#c873ed"] ;
35 -> 133 ;
134 [label=<Elevation &le; 2153.0<br/>gini = 0.149<br/>samples = 37<br/>value = [0, 0, 3, 0, 0, 34, 0]>, fillcolor="#b84ae7"] ;
133 -> 134 ;
135 [label=<gini = 0.0<br/>samples = 1<br/>value = [0, 0, 1, 0, 0, 0, 0]>, fillcolor="#39e54d"] ;
134 -> 135 ;
136 [label=<Horizontal_Distance_To_Hydrology &le; 172.5<br/>gini = 0.105<br/>samples = 36<br/>value = [0, 0, 2, 0, 0, 34, 0]>, fillcolor="#b645e7"] ;
134 -> 136 ;
137 [label=<Horizontal_Distance_To_Roadways &le; 1265.5<br/>gini = 0.057<br/>samples = 34<br/>value = [0, 0, 1, 0, 0, 33, 0]>, fillcolor="#b33fe6"] ;
136 -> 137 ;
138 [label=<Horizontal_Distance_To_Roadways &le; 1256.5<br/>gini = 0.32<br/>samples = 5<br/>value = [0, 0, 1, 0, 0, 4, 0]>, fillcolor="#c46aec"] ;
137 -> 138 ;
139 [label=<gini = 0.0<br/>samples = 4<br/>value = [0, 0, 0, 0, 0, 4, 0]>, fillcolor="#b139e5"] ;
138 -> 139 ;
140 [label=<gini = 0.0<br/>samples = 1<br/>value = [0, 0, 1, 0, 0, 0, 0]>, fillcolor="#39e54d"] ;
138 -> 140 ;
141 [label=<gini = 0.0<br/>samples = 29<br/>value = [0, 0, 0, 0, 0, 29, 0]>, fillcolor="#b139e5"] ;
137 -> 141 ;
142 [label=<Hillshade_3pm &le; 170.5<br/>gini = 0.5<br/>samples = 2<br/>value = [0, 0, 1, 0, 0, 1, 0]>, fillcolor="#ffffff"] ;
136 -> 142 ;
143 [label=<gini = 0.0<br/>samples = 1<br/>value = [0, 0, 0, 0, 0, 1, 0]>, fillcolor="#b139e5"] ;
142 -> 143 ;
144 [label=<gini = 0.0<br/>samples = 1<br/>value = [0, 0, 1, 0, 0, 0, 0]>, fillcolor="#39e54d"] ;
142 -> 144 ;
145 [label=<gini = 0.0<br/>samples = 7<br/>value = [0, 0, 7, 0, 0, 0, 0]>, fillcolor="#39e54d"] ;
133 -> 145 ;
146 [label=<Horizontal_Distance_To_Fire_Points &le; 1069.0<br/>gini = 0.538<br/>samples = 514<br/>value = [0, 0, 203, 28, 0, 283, 0]>, fillcolor="#ebccf8"] ;
34 -> 146 ;
147 [label=<Hillshade_3pm &le; 229.5<br/>gini = 0.502<br/>samples = 414<br/>value = [0, 0, 131, 23, 0, 260, 0]>, fillcolor="#dba5f3"] ;
146 -> 147 ;
148 [label=<Horizontal_Distance_To_Hydrology &le; 406.0<br/>gini = 0.482<br/>samples = 387<br/>value = [0, 0, 110, 22, 0, 255, 0]>, fillcolor="#d697f1"] ;
147 -> 148 ;
149 [label=<Elevation &le; 2058.5<br/>gini = 0.45<br/>samples = 368<br/>value = [0, 0, 99, 15, 0, 254, 0]>, fillcolor="#d28df0"] ;
148 -> 149 ;
150 [label=<Slope &le; 37.5<br/>gini = 0.044<br/>samples = 44<br/>value = [0, 0, 1, 0, 0, 43, 0]>, fillcolor="#b33ee6"] ;
149 -> 150 ;
151 [label=<gini = 0.0<br/>samples = 43<br/>value = [0, 0, 0, 0, 0, 43, 0]>, fillcolor="#b139e5"] ;
150 -> 151 ;
152 [label=<gini = 0.0<br/>samples = 1<br/>value = [0, 0, 1, 0, 0, 0, 0]>, fillcolor="#39e54d"] ;
150 -> 152 ;
153 [label=<Horizontal_Distance_To_Roadways &le; 375.0<br/>gini = 0.482<br/>samples = 324<br/>value = [0, 0, 98, 15, 0, 211, 0]>, fillcolor="#d89cf2"] ;
149 -> 153 ;
154 [label=<Horizontal_Distance_To_Fire_Points &le; 883.5<br/>gini = 0.32<br/>samples = 25<br/>value = [0, 0, 20, 0, 0, 5, 0]>, fillcolor="#6aec79"] ;
153 -> 154 ;
155 [label=<Aspect &le; 18.5<br/>gini = 0.227<br/>samples = 23<br/>value = [0, 0, 20, 0, 0, 3, 0]>, fillcolor="#57e968"] ;
154 -> 155 ;
156 [label=<Hillshade_3pm &le; 111.0<br/>gini = 0.444<br/>samples = 3<br/>value = [0, 0, 1, 0, 0, 2, 0]>, fillcolor="#d89cf2"] ;
155 -> 156 ;
157 [label=<gini = 0.0<br/>samples = 1<br/>value = [0, 0, 1, 0, 0, 0, 0]>, fillcolor="#39e54d"] ;
156 -> 157 ;
158 [label=<gini = 0.0<br/>samples = 2<br/>value = [0, 0, 0, 0, 0, 2, 0]>, fillcolor="#b139e5"] ;
156 -> 158 ;
159 [label=<Vertical_Distance_To_Hydrology &le; 40.5<br/>gini = 0.095<br/>samples = 20<br/>value = [0, 0, 19, 0, 0, 1, 0]>, fillcolor="#43e656"] ;
155 -> 159 ;
160 [label=<Vertical_Distance_To_Hydrology &le; 33.0<br/>gini = 0.278<br/>samples = 6<br/>value = [0, 0, 5, 0, 0, 1, 0]>, fillcolor="#61ea71"] ;
159 -> 160 ;
161 [label=<gini = 0.0<br/>samples = 5<br/>value = [0, 0, 5, 0, 0, 0, 0]>, fillcolor="#39e54d"] ;
160 -> 161 ;
162 [label=<gini = 0.0<br/>samples = 1<br/>value = [0, 0, 0, 0, 0, 1, 0]>, fillcolor="#b139e5"] ;
160 -> 162 ;
163 [label=<gini = 0.0<br/>samples = 14<br/>value = [0, 0, 14, 0, 0, 0, 0]>, fillcolor="#39e54d"] ;
159 -> 163 ;
164 [label=<gini = 0.0<br/>samples = 2<br/>value = [0, 0, 0, 0, 0, 2, 0]>, fillcolor="#b139e5"] ;
154 -> 164 ;
165 [label=<Horizontal_Distance_To_Roadways &le; 1145.5<br/>gini = 0.455<br/>samples = 299<br/>value = [0, 0, 78, 15, 0, 206, 0]>, fillcolor="#d28cf0"] ;
153 -> 165 ;
166 [label=<Horizontal_Distance_To_Fire_Points &le; 802.5<br/>gini = 0.356<br/>samples = 186<br/>value = [0, 0, 35, 6, 0, 145, 0]>, fillcolor="#c66fec"] ;
165 -> 166 ;
167 [label=<Hillshade_Noon &le; 239.0<br/>gini = 0.51<br/>samples = 91<br/>value = [0, 0, 30, 5, 0, 56, 0]>, fillcolor="#deabf4"] ;
166 -> 167 ;
168 [label=<Horizontal_Distance_To_Hydrology &le; 287.0<br/>gini = 0.447<br/>samples = 83<br/>value = [0, 0, 26, 1, 0, 56, 0]>, fillcolor="#d697f1"] ;
167 -> 168 ;
169 [label=<Aspect &le; 5.5<br/>gini = 0.395<br/>samples = 72<br/>value = [0, 0, 18, 1, 0, 53, 0]>, fillcolor="#cc7fee"] ;
168 -> 169 ;
170 [label=<gini = 0.0<br/>samples = 4<br/>value = [0, 0, 4, 0, 0, 0, 0]>, fillcolor="#39e54d"] ;
169 -> 170 ;
171 [label=<Aspect &le; 357.5<br/>gini = 0.35<br/>samples = 68<br/>value = [0, 0, 14, 1, 0, 53, 0]>, fillcolor="#c770ec"] ;
169 -> 171 ;
172 [label=<Hillshade_Noon &le; 202.0<br/>gini = 0.322<br/>samples = 66<br/>value = [0, 0, 12, 1, 0, 53, 0]>, fillcolor="#c469eb"] ;
171 -> 172 ;
173 [label=<Vertical_Distance_To_Hydrology &le; 123.5<br/>gini = 0.105<br/>samples = 36<br/>value = [0, 0, 2, 0, 0, 34, 0]>, fillcolor="#b645e7"] ;
172 -> 173 ;
174 [label=<Horizontal_Distance_To_Roadways &le; 1013.0<br/>gini = 0.056<br/>samples = 35<br/>value = [0, 0, 1, 0, 0, 34, 0]>, fillcolor="#b33fe6"] ;
173 -> 174 ;
175 [label=<gini = 0.0<br/>samples = 34<br/>value = [0, 0, 0, 0, 0, 34, 0]>, fillcolor="#b139e5"] ;
174 -> 175 ;
176 [label=<gini = 0.0<br/>samples = 1<br/>value = [0, 0, 1, 0, 0, 0, 0]>, fillcolor="#39e54d"] ;
174 -> 176 ;
177 [label=<gini = 0.0<br/>samples = 1<br/>value = [0, 0, 1, 0, 0, 0, 0]>, fillcolor="#39e54d"] ;
173 -> 177 ;
178 [label=<Slope &le; 15.5<br/>gini = 0.487<br/>samples = 30<br/>value = [0, 0, 10, 1, 0, 19, 0]>, fillcolor="#dca6f3"] ;
172 -> 178 ;
179 [label=<gini = 0.0<br/>samples = 6<br/>value = [0, 0, 0, 0, 0, 6, 0]>, fillcolor="#b139e5"] ;
178 -> 179 ;
180 [label=<Horizontal_Distance_To_Roadways &le; 1105.5<br/>gini = 0.531<br/>samples = 24<br/>value = [0, 0, 10, 1, 0, 13, 0]>, fillcolor="#eed5f9"] ;
178 -> 180 ;
181 [label=<Slope &le; 17.5<br/>gini = 0.543<br/>samples = 19<br/>value = [0, 0, 10, 1, 0, 8, 0]>, fillcolor="#dbfadf"] ;
180 -> 181 ;
182 [label=<gini = 0.0<br/>samples = 3<br/>value = [0, 0, 3, 0, 0, 0, 0]>, fillcolor="#39e54d"] ;
181 -> 182 ;
183 [label=<Horizontal_Distance_To_Roadways &le; 770.5<br/>gini = 0.555<br/>samples = 16<br/>value = [0, 0, 7, 1, 0, 8, 0]>, fillcolor="#f6e9fc"] ;
181 -> 183 ;
184 [label=<gini = 0.0<br/>samples = 4<br/>value = [0, 0, 0, 0, 0, 4, 0]>, fillcolor="#b139e5"] ;
183 -> 184 ;
185 [label=<Horizontal_Distance_To_Fire_Points &le; 698.0<br/>gini = 0.542<br/>samples = 12<br/>value = [0, 0, 7, 1, 0, 4, 0]>, fillcolor="#b5f5bc"] ;
183 -> 185 ;
186 [label=<Aspect &le; 287.0<br/>gini = 0.278<br/>samples = 6<br/>value = [0, 0, 5, 1, 0, 0, 0]>, fillcolor="#61ea71"] ;
185 -> 186 ;
187 [label=<gini = 0.0<br/>samples = 1<br/>value = [0, 0, 0, 1, 0, 0, 0]>, fillcolor="#39e5e2"] ;
186 -> 187 ;
188 [label=<gini = 0.0<br/>samples = 5<br/>value = [0, 0, 5, 0, 0, 0, 0]>, fillcolor="#39e54d"] ;
186 -> 188 ;
189 [label=<Vertical_Distance_To_Hydrology &le; 46.5<br/>gini = 0.444<br/>samples = 6<br/>value = [0, 0, 2, 0, 0, 4, 0]>, fillcolor="#d89cf2"] ;
185 -> 189 ;
190 [label=<gini = 0.0<br/>samples = 2<br/>value = [0, 0, 2, 0, 0, 0, 0]>, fillcolor="#39e54d"] ;
189 -> 190 ;
191 [label=<gini = 0.0<br/>samples = 4<br/>value = [0, 0, 0, 0, 0, 4, 0]>, fillcolor="#b139e5"] ;
189 -> 191 ;
192 [label=<gini = 0.0<br/>samples = 5<br/>value = [0, 0, 0, 0, 0, 5, 0]>, fillcolor="#b139e5"] ;
180 -> 192 ;
193 [label=<gini = 0.0<br/>samples = 2<br/>value = [0, 0, 2, 0, 0, 0, 0]>, fillcolor="#39e54d"] ;
171 -> 193 ;
194 [label=<Hillshade_Noon &le; 221.5<br/>gini = 0.397<br/>samples = 11<br/>value = [0, 0, 8, 0, 0, 3, 0]>, fillcolor="#83ef90"] ;
168 -> 194 ;
195 [label=<Vertical_Distance_To_Hydrology &le; -58.0<br/>gini = 0.198<br/>samples = 9<br/>value = [0, 0, 8, 0, 0, 1, 0]>, fillcolor="#52e863"] ;
194 -> 195 ;
196 [label=<gini = 0.0<br/>samples = 1<br/>value = [0, 0, 0, 0, 0, 1, 0]>, fillcolor="#b139e5"] ;
195 -> 196 ;
197 [label=<gini = 0.0<br/>samples = 8<br/>value = [0, 0, 8, 0, 0, 0, 0]>, fillcolor="#39e54d"] ;
195 -> 197 ;
198 [label=<gini = 0.0<br/>samples = 2<br/>value = [0, 0, 0, 0, 0, 2, 0]>, fillcolor="#b139e5"] ;
194 -> 198 ;
199 [label=<Horizontal_Distance_To_Roadways &le; 845.0<br/>gini = 0.5<br/>samples = 8<br/>value = [0, 0, 4, 4, 0, 0, 0]>, fillcolor="#ffffff"] ;
167 -> 199 ;
200 [label=<gini = 0.0<br/>samples = 4<br/>value = [0, 0, 4, 0, 0, 0, 0]>, fillcolor="#39e54d"] ;
199 -> 200 ;
201 [label=<gini = 0.0<br/>samples = 4<br/>value = [0, 0, 0, 4, 0, 0, 0]>, fillcolor="#39e5e2"] ;
199 -> 201 ;
202 [label=<Horizontal_Distance_To_Roadways &le; 406.0<br/>gini = 0.119<br/>samples = 95<br/>value = [0, 0, 5, 1, 0, 89, 0]>, fillcolor="#b646e7"] ;
166 -> 202 ;
203 [label=<Slope &le; 27.0<br/>gini = 0.64<br/>samples = 5<br/>value = [0, 0, 2, 1, 0, 2, 0]>, fillcolor="#ffffff"] ;
202 -> 203 ;
204 [label=<Hillshade_Noon &le; 225.0<br/>gini = 0.444<br/>samples = 3<br/>value = [0, 0, 2, 1, 0, 0, 0]>, fillcolor="#9cf2a6"] ;
203 -> 204 ;
205 [label=<gini = 0.0<br/>samples = 2<br/>value = [0, 0, 2, 0, 0, 0, 0]>, fillcolor="#39e54d"] ;
204 -> 205 ;
206 [label=<gini = 0.0<br/>samples = 1<br/>value = [0, 0, 0, 1, 0, 0, 0]>, fillcolor="#39e5e2"] ;
204 -> 206 ;
207 [label=<gini = 0.0<br/>samples = 2<br/>value = [0, 0, 0, 0, 0, 2, 0]>, fillcolor="#b139e5"] ;
203 -> 207 ;
208 [label=<Aspect &le; 353.0<br/>gini = 0.064<br/>samples = 90<br/>value = [0, 0, 3, 0, 0, 87, 0]>, fillcolor="#b440e6"] ;
202 -> 208 ;
209 [label=<Soil_Type6 &le; 0.5<br/>gini = 0.023<br/>samples = 87<br/>value = [0, 0, 1, 0, 0, 86, 0]>, fillcolor="#b23be5"] ;
208 -> 209 ;
210 [label=<gini = 0.0<br/>samples = 86<br/>value = [0, 0, 0, 0, 0, 86, 0]>, fillcolor="#b139e5"] ;
209 -> 210 ;
211 [label=<gini = 0.0<br/>samples = 1<br/>value = [0, 0, 1, 0, 0, 0, 0]>, fillcolor="#39e54d"] ;
209 -> 211 ;
212 [label=<Horizontal_Distance_To_Hydrology &le; 347.5<br/>gini = 0.444<br/>samples = 3<br/>value = [0, 0, 2, 0, 0, 1, 0]>, fillcolor="#9cf2a6"] ;
208 -> 212 ;
213 [label=<gini = 0.0<br/>samples = 1<br/>value = [0, 0, 0, 0, 0, 1, 0]>, fillcolor="#b139e5"] ;
212 -> 213 ;
214 [label=<gini = 0.0<br/>samples = 2<br/>value = [0, 0, 2, 0, 0, 0, 0]>, fillcolor="#39e54d"] ;
212 -> 214 ;
215 [label=<Slope &le; 27.5<br/>gini = 0.557<br/>samples = 113<br/>value = [0, 0, 43, 9, 0, 61, 0]>, fillcolor="#ebccf8"] ;
165 -> 215 ;
216 [label=<Horizontal_Distance_To_Hydrology &le; 286.0<br/>gini = 0.468<br/>samples = 81<br/>value = [0, 0, 17, 8, 0, 56, 0]>, fillcolor="#cf86ef"] ;
215 -> 216 ;
217 [label=<Horizontal_Distance_To_Fire_Points &le; 905.0<br/>gini = 0.365<br/>samples = 71<br/>value = [0, 0, 13, 3, 0, 55, 0]>, fillcolor="#c770ec"] ;
216 -> 217 ;
218 [label=<Hillshade_Noon &le; 186.0<br/>gini = 0.2<br/>samples = 55<br/>value = [0, 0, 4, 2, 0, 49, 0]>, fillcolor="#ba50e8"] ;
217 -> 218 ;
219 [label=<Vertical_Distance_To_Hydrology &le; 7.5<br/>gini = 0.444<br/>samples = 3<br/>value = [0, 0, 2, 1, 0, 0, 0]>, fillcolor="#9cf2a6"] ;
218 -> 219 ;
220 [label=<gini = 0.0<br/>samples = 1<br/>value = [0, 0, 0, 1, 0, 0, 0]>, fillcolor="#39e5e2"] ;
219 -> 220 ;
221 [label=<gini = 0.0<br/>samples = 2<br/>value = [0, 0, 2, 0, 0, 0, 0]>, fillcolor="#39e54d"] ;
219 -> 221 ;
222 [label=<Horizontal_Distance_To_Roadways &le; 1154.0<br/>gini = 0.11<br/>samples = 52<br/>value = [0, 0, 2, 1, 0, 49, 0]>, fillcolor="#b645e7"] ;
218 -> 222 ;
223 [label=<gini = 0.0<br/>samples = 1<br/>value = [0, 0, 1, 0, 0, 0, 0]>, fillcolor="#39e54d"] ;
222 -> 223 ;
224 [label=<Elevation &le; 2194.0<br/>gini = 0.076<br/>samples = 51<br/>value = [0, 0, 1, 1, 0, 49, 0]>, fillcolor="#b441e6"] ;
222 -> 224 ;
225 [label=<Horizontal_Distance_To_Fire_Points &le; 707.5<br/>gini = 0.5<br/>samples = 2<br/>value = [0, 0, 0, 1, 0, 1, 0]>, fillcolor="#ffffff"] ;
224 -> 225 ;
226 [label=<gini = 0.0<br/>samples = 1<br/>value = [0, 0, 0, 0, 0, 1, 0]>, fillcolor="#b139e5"] ;
225 -> 226 ;
227 [label=<gini = 0.0<br/>samples = 1<br/>value = [0, 0, 0, 1, 0, 0, 0]>, fillcolor="#39e5e2"] ;
225 -> 227 ;
228 [label=<Slope &le; 25.5<br/>gini = 0.04<br/>samples = 49<br/>value = [0, 0, 1, 0, 0, 48, 0]>, fillcolor="#b33de6"] ;
224 -> 228 ;
229 [label=<gini = 0.0<br/>samples = 45<br/>value = [0, 0, 0, 0, 0, 45, 0]>, fillcolor="#b139e5"] ;
228 -> 229 ;
230 [label=<Aspect &le; 316.0<br/>gini = 0.375<br/>samples = 4<br/>value = [0, 0, 1, 0, 0, 3, 0]>, fillcolor="#cb7bee"] ;
228 -> 230 ;
231 [label=<gini = 0.0<br/>samples = 3<br/>value = [0, 0, 0, 0, 0, 3, 0]>, fillcolor="#b139e5"] ;
230 -> 231 ;
232 [label=<gini = 0.0<br/>samples = 1<br/>value = [0, 0, 1, 0, 0, 0, 0]>, fillcolor="#39e54d"] ;
230 -> 232 ;
233 [label=<Soil_Type10 &le; 0.5<br/>gini = 0.539<br/>samples = 16<br/>value = [0, 0, 9, 1, 0, 6, 0]>, fillcolor="#c4f7ca"] ;
217 -> 233 ;
234 [label=<Hillshade_9am &le; 180.0<br/>gini = 0.406<br/>samples = 8<br/>value = [0, 0, 1, 1, 0, 6, 0]>, fillcolor="#c772ec"] ;
233 -> 234 ;
235 [label=<gini = 0.0<br/>samples = 6<br/>value = [0, 0, 0, 0, 0, 6, 0]>, fillcolor="#b139e5"] ;
234 -> 235 ;
236 [label=<Hillshade_Noon &le; 206.5<br/>gini = 0.5<br/>samples = 2<br/>value = [0, 0, 1, 1, 0, 0, 0]>, fillcolor="#ffffff"] ;
234 -> 236 ;
237 [label=<gini = 0.0<br/>samples = 1<br/>value = [0, 0, 1, 0, 0, 0, 0]>, fillcolor="#39e54d"] ;
236 -> 237 ;
238 [label=<gini = 0.0<br/>samples = 1<br/>value = [0, 0, 0, 1, 0, 0, 0]>, fillcolor="#39e5e2"] ;
236 -> 238 ;
239 [label=<gini = 0.0<br/>samples = 8<br/>value = [0, 0, 8, 0, 0, 0, 0]>, fillcolor="#39e54d"] ;
233 -> 239 ;
240 [label=<Aspect &le; 280.0<br/>gini = 0.58<br/>samples = 10<br/>value = [0, 0, 4, 5, 0, 1, 0]>, fillcolor="#defbfa"] ;
216 -> 240 ;
241 [label=<gini = 0.0<br/>samples = 5<br/>value = [0, 0, 0, 5, 0, 0, 0]>, fillcolor="#39e5e2"] ;
240 -> 241 ;
242 [label=<Vertical_Distance_To_Hydrology &le; 85.5<br/>gini = 0.32<br/>samples = 5<br/>value = [0, 0, 4, 0, 0, 1, 0]>, fillcolor="#6aec79"] ;
240 -> 242 ;
243 [label=<gini = 0.0<br/>samples = 1<br/>value = [0, 0, 0, 0, 0, 1, 0]>, fillcolor="#b139e5"] ;
242 -> 243 ;
244 [label=<gini = 0.0<br/>samples = 4<br/>value = [0, 0, 4, 0, 0, 0, 0]>, fillcolor="#39e54d"] ;
242 -> 244 ;
245 [label=<Soil_Type10 &le; 0.5<br/>gini = 0.314<br/>samples = 32<br/>value = [0, 0, 26, 1, 0, 5, 0]>, fillcolor="#65eb75"] ;
215 -> 245 ;
246 [label=<Horizontal_Distance_To_Fire_Points &le; 835.0<br/>gini = 0.444<br/>samples = 3<br/>value = [0, 0, 0, 1, 0, 2, 0]>, fillcolor="#d89cf2"] ;
245 -> 246 ;
247 [label=<gini = 0.0<br/>samples = 2<br/>value = [0, 0, 0, 0, 0, 2, 0]>, fillcolor="#b139e5"] ;
246 -> 247 ;
248 [label=<gini = 0.0<br/>samples = 1<br/>value = [0, 0, 0, 1, 0, 0, 0]>, fillcolor="#39e5e2"] ;
246 -> 248 ;
249 [label=<Horizontal_Distance_To_Fire_Points &le; 621.0<br/>gini = 0.185<br/>samples = 29<br/>value = [0, 0, 26, 0, 0, 3, 0]>, fillcolor="#50e862"] ;
245 -> 249 ;
250 [label=<gini = 0.0<br/>samples = 1<br/>value = [0, 0, 0, 0, 0, 1, 0]>, fillcolor="#b139e5"] ;
249 -> 250 ;
251 [label=<Hillshade_9am &le; 122.5<br/>gini = 0.133<br/>samples = 28<br/>value = [0, 0, 26, 0, 0, 2, 0]>, fillcolor="#48e75b"] ;
249 -> 251 ;
252 [label=<Hillshade_Noon &le; 191.5<br/>gini = 0.32<br/>samples = 10<br/>value = [0, 0, 8, 0, 0, 2, 0]>, fillcolor="#6aec79"] ;
251 -> 252 ;
253 [label=<gini = 0.0<br/>samples = 6<br/>value = [0, 0, 6, 0, 0, 0, 0]>, fillcolor="#39e54d"] ;
252 -> 253 ;
254 [label=<Hillshade_9am &le; 118.5<br/>gini = 0.5<br/>samples = 4<br/>value = [0, 0, 2, 0, 0, 2, 0]>, fillcolor="#ffffff"] ;
252 -> 254 ;
255 [label=<gini = 0.0<br/>samples = 2<br/>value = [0, 0, 2, 0, 0, 0, 0]>, fillcolor="#39e54d"] ;
254 -> 255 ;
256 [label=<gini = 0.0<br/>samples = 2<br/>value = [0, 0, 0, 0, 0, 2, 0]>, fillcolor="#b139e5"] ;
254 -> 256 ;
257 [label=<gini = 0.0<br/>samples = 18<br/>value = [0, 0, 18, 0, 0, 0, 0]>, fillcolor="#39e54d"] ;
251 -> 257 ;
258 [label=<Hillshade_Noon &le; 247.5<br/>gini = 0.526<br/>samples = 19<br/>value = [0, 0, 11, 7, 0, 1, 0]>, fillcolor="#bdf6c4"] ;
148 -> 258 ;
259 [label=<Soil_Type5 &le; 0.5<br/>gini = 0.18<br/>samples = 10<br/>value = [0, 0, 9, 0, 0, 1, 0]>, fillcolor="#4fe861"] ;
258 -> 259 ;
260 [label=<gini = 0.0<br/>samples = 9<br/>value = [0, 0, 9, 0, 0, 0, 0]>, fillcolor="#39e54d"] ;
259 -> 260 ;
261 [label=<gini = 0.0<br/>samples = 1<br/>value = [0, 0, 0, 0, 0, 1, 0]>, fillcolor="#b139e5"] ;
259 -> 261 ;
262 [label=<Horizontal_Distance_To_Roadways &le; 934.5<br/>gini = 0.346<br/>samples = 9<br/>value = [0, 0, 2, 7, 0, 0, 0]>, fillcolor="#72ecea"] ;
258 -> 262 ;
263 [label=<gini = 0.0<br/>samples = 2<br/>value = [0, 0, 2, 0, 0, 0, 0]>, fillcolor="#39e54d"] ;
262 -> 263 ;
264 [label=<gini = 0.0<br/>samples = 7<br/>value = [0, 0, 0, 7, 0, 0, 0]>, fillcolor="#39e5e2"] ;
262 -> 264 ;
265 [label=<Horizontal_Distance_To_Fire_Points &le; 933.5<br/>gini = 0.359<br/>samples = 27<br/>value = [0, 0, 21, 1, 0, 5, 0]>, fillcolor="#6fec7e"] ;
147 -> 265 ;
266 [label=<Elevation &le; 1981.5<br/>gini = 0.226<br/>samples = 24<br/>value = [0, 0, 21, 1, 0, 2, 0]>, fillcolor="#54e965"] ;
265 -> 266 ;
267 [label=<gini = 0.0<br/>samples = 1<br/>value = [0, 0, 0, 0, 0, 1, 0]>, fillcolor="#b139e5"] ;
266 -> 267 ;
268 [label=<Elevation &le; 2334.5<br/>gini = 0.163<br/>samples = 23<br/>value = [0, 0, 21, 1, 0, 1, 0]>, fillcolor="#4be75d"] ;
266 -> 268 ;
269 [label=<gini = 0.0<br/>samples = 20<br/>value = [0, 0, 20, 0, 0, 0, 0]>, fillcolor="#39e54d"] ;
268 -> 269 ;
270 [label=<Hillshade_9am &le; 121.5<br/>gini = 0.667<br/>samples = 3<br/>value = [0, 0, 1, 1, 0, 1, 0]>, fillcolor="#ffffff"] ;
268 -> 270 ;
271 [label=<gini = 0.0<br/>samples = 1<br/>value = [0, 0, 1, 0, 0, 0, 0]>, fillcolor="#39e54d"] ;
270 -> 271 ;
272 [label=<Hillshade_3pm &le; 233.5<br/>gini = 0.5<br/>samples = 2<br/>value = [0, 0, 0, 1, 0, 1, 0]>, fillcolor="#ffffff"] ;
270 -> 272 ;
273 [label=<gini = 0.0<br/>samples = 1<br/>value = [0, 0, 0, 1, 0, 0, 0]>, fillcolor="#39e5e2"] ;
272 -> 273 ;
274 [label=<gini = 0.0<br/>samples = 1<br/>value = [0, 0, 0, 0, 0, 1, 0]>, fillcolor="#b139e5"] ;
272 -> 274 ;
275 [label=<gini = 0.0<br/>samples = 3<br/>value = [0, 0, 0, 0, 0, 3, 0]>, fillcolor="#b139e5"] ;
265 -> 275 ;
276 [label=<Slope &le; 24.5<br/>gini = 0.426<br/>samples = 100<br/>value = [0, 0, 72, 5, 0, 23, 0]>, fillcolor="#81ee8e"] ;
146 -> 276 ;
277 [label=<Horizontal_Distance_To_Hydrology &le; 378.0<br/>gini = 0.58<br/>samples = 43<br/>value = [0, 0, 20, 4, 0, 19, 0]>, fillcolor="#f7fef8"] ;
276 -> 277 ;
278 [label=<Elevation &le; 2258.5<br/>gini = 0.553<br/>samples = 32<br/>value = [0, 0, 9, 4, 0, 19, 0]>, fillcolor="#dda9f4"] ;
277 -> 278 ;
279 [label=<Soil_Type10 &le; 0.5<br/>gini = 0.463<br/>samples = 11<br/>value = [0, 0, 7, 4, 0, 0, 0]>, fillcolor="#aaf4b3"] ;
278 -> 279 ;
280 [label=<gini = 0.0<br/>samples = 4<br/>value = [0, 0, 0, 4, 0, 0, 0]>, fillcolor="#39e5e2"] ;
279 -> 280 ;
281 [label=<gini = 0.0<br/>samples = 7<br/>value = [0, 0, 7, 0, 0, 0, 0]>, fillcolor="#39e54d"] ;
279 -> 281 ;
282 [label=<Soil_Type2 &le; 0.5<br/>gini = 0.172<br/>samples = 21<br/>value = [0, 0, 2, 0, 0, 19, 0]>, fillcolor="#b94ee8"] ;
278 -> 282 ;
283 [label=<Hillshade_9am &le; 160.0<br/>gini = 0.095<br/>samples = 20<br/>value = [0, 0, 1, 0, 0, 19, 0]>, fillcolor="#b543e6"] ;
282 -> 283 ;
284 [label=<Hillshade_9am &le; 156.0<br/>gini = 0.375<br/>samples = 4<br/>value = [0, 0, 1, 0, 0, 3, 0]>, fillcolor="#cb7bee"] ;
283 -> 284 ;
285 [label=<gini = 0.0<br/>samples = 3<br/>value = [0, 0, 0, 0, 0, 3, 0]>, fillcolor="#b139e5"] ;
284 -> 285 ;
286 [label=<gini = 0.0<br/>samples = 1<br/>value = [0, 0, 1, 0, 0, 0, 0]>, fillcolor="#39e54d"] ;
284 -> 286 ;
287 [label=<gini = 0.0<br/>samples = 16<br/>value = [0, 0, 0, 0, 0, 16, 0]>, fillcolor="#b139e5"] ;
283 -> 287 ;
288 [label=<gini = 0.0<br/>samples = 1<br/>value = [0, 0, 1, 0, 0, 0, 0]>, fillcolor="#39e54d"] ;
282 -> 288 ;
289 [label=<gini = 0.0<br/>samples = 11<br/>value = [0, 0, 11, 0, 0, 0, 0]>, fillcolor="#39e54d"] ;
277 -> 289 ;
290 [label=<Horizontal_Distance_To_Hydrology &le; 36.0<br/>gini = 0.163<br/>samples = 57<br/>value = [0, 0, 52, 1, 0, 4, 0]>, fillcolor="#4ce75e"] ;
276 -> 290 ;
291 [label=<Horizontal_Distance_To_Fire_Points &le; 1250.0<br/>gini = 0.5<br/>samples = 2<br/>value = [0, 0, 0, 1, 0, 1, 0]>, fillcolor="#ffffff"] ;
290 -> 291 ;
292 [label=<gini = 0.0<br/>samples = 1<br/>value = [0, 0, 0, 0, 0, 1, 0]>, fillcolor="#b139e5"] ;
291 -> 292 ;
293 [label=<gini = 0.0<br/>samples = 1<br/>value = [0, 0, 0, 1, 0, 0, 0]>, fillcolor="#39e5e2"] ;
291 -> 293 ;
294 [label=<Horizontal_Distance_To_Hydrology &le; 92.5<br/>gini = 0.103<br/>samples = 55<br/>value = [0, 0, 52, 0, 0, 3, 0]>, fillcolor="#44e657"] ;
290 -> 294 ;
295 [label=<Elevation &le; 2273.0<br/>gini = 0.375<br/>samples = 8<br/>value = [0, 0, 6, 0, 0, 2, 0]>, fillcolor="#7bee88"] ;
294 -> 295 ;
296 [label=<gini = 0.0<br/>samples = 6<br/>value = [0, 0, 6, 0, 0, 0, 0]>, fillcolor="#39e54d"] ;
295 -> 296 ;
297 [label=<gini = 0.0<br/>samples = 2<br/>value = [0, 0, 0, 0, 0, 2, 0]>, fillcolor="#b139e5"] ;
295 -> 297 ;
298 [label=<Hillshade_3pm &le; 235.5<br/>gini = 0.042<br/>samples = 47<br/>value = [0, 0, 46, 0, 0, 1, 0]>, fillcolor="#3de651"] ;
294 -> 298 ;
299 [label=<gini = 0.0<br/>samples = 44<br/>value = [0, 0, 44, 0, 0, 0, 0]>, fillcolor="#39e54d"] ;
298 -> 299 ;
300 [label=<Aspect &le; 280.0<br/>gini = 0.444<br/>samples = 3<br/>value = [0, 0, 2, 0, 0, 1, 0]>, fillcolor="#9cf2a6"] ;
298 -> 300 ;
301 [label=<gini = 0.0<br/>samples = 2<br/>value = [0, 0, 2, 0, 0, 0, 0]>, fillcolor="#39e54d"] ;
300 -> 301 ;
302 [label=<gini = 0.0<br/>samples = 1<br/>value = [0, 0, 0, 0, 0, 1, 0]>, fillcolor="#b139e5"] ;
300 -> 302 ;
303 [label=<Horizontal_Distance_To_Roadways &le; 571.0<br/>gini = 0.408<br/>samples = 49<br/>value = [0, 0, 11, 36, 0, 2, 0]>, fillcolor="#7deeec"] ;
33 -> 303 ;
304 [label=<gini = 0.0<br/>samples = 8<br/>value = [0, 0, 8, 0, 0, 0, 0]>, fillcolor="#39e54d"] ;
303 -> 304 ;
305 [label=<Elevation &le; 2233.5<br/>gini = 0.221<br/>samples = 41<br/>value = [0, 0, 3, 36, 0, 2, 0]>, fillcolor="#53e8e6"] ;
303 -> 305 ;
306 [label=<Elevation &le; 2109.5<br/>gini = 0.142<br/>samples = 39<br/>value = [0, 0, 3, 36, 0, 0, 0]>, fillcolor="#49e7e4"] ;
305 -> 306 ;
307 [label=<Horizontal_Distance_To_Roadways &le; 1101.5<br/>gini = 0.375<br/>samples = 12<br/>value = [0, 0, 3, 9, 0, 0, 0]>, fillcolor="#7beeec"] ;
306 -> 307 ;
308 [label=<Elevation &le; 2044.5<br/>gini = 0.18<br/>samples = 10<br/>value = [0, 0, 1, 9, 0, 0, 0]>, fillcolor="#4fe8e5"] ;
307 -> 308 ;
309 [label=<Vertical_Distance_To_Hydrology &le; 4.5<br/>gini = 0.5<br/>samples = 2<br/>value = [0, 0, 1, 1, 0, 0, 0]>, fillcolor="#ffffff"] ;
308 -> 309 ;
310 [label=<gini = 0.0<br/>samples = 1<br/>value = [0, 0, 0, 1, 0, 0, 0]>, fillcolor="#39e5e2"] ;
309 -> 310 ;
311 [label=<gini = 0.0<br/>samples = 1<br/>value = [0, 0, 1, 0, 0, 0, 0]>, fillcolor="#39e54d"] ;
309 -> 311 ;
312 [label=<gini = 0.0<br/>samples = 8<br/>value = [0, 0, 0, 8, 0, 0, 0]>, fillcolor="#39e5e2"] ;
308 -> 312 ;
313 [label=<gini = 0.0<br/>samples = 2<br/>value = [0, 0, 2, 0, 0, 0, 0]>, fillcolor="#39e54d"] ;
307 -> 313 ;
314 [label=<gini = 0.0<br/>samples = 27<br/>value = [0, 0, 0, 27, 0, 0, 0]>, fillcolor="#39e5e2"] ;
306 -> 314 ;
315 [label=<gini = 0.0<br/>samples = 2<br/>value = [0, 0, 0, 0, 0, 2, 0]>, fillcolor="#b139e5"] ;
305 -> 315 ;
316 [label=<Horizontal_Distance_To_Hydrology &le; 15.0<br/>gini = 0.428<br/>samples = 1932<br/>value = [0, 1, 317, 1412, 0, 202, 0]>, fillcolor="#79edeb"] ;
2 -> 316 ;
317 [label=<Wilderness_Area3 &le; 0.5<br/>gini = 0.105<br/>samples = 585<br/>value = [0, 0, 11, 553, 0, 21, 0]>, fillcolor="#44e6e4"] ;
316 -> 317 ;
318 [label=<Elevation &le; 1972.5<br/>gini = 0.084<br/>samples = 578<br/>value = [0, 0, 11, 553, 0, 14, 0]>, fillcolor="#42e6e3"] ;
317 -> 318 ;
319 [label=<Hillshade_3pm &le; 119.5<br/>gini = 0.444<br/>samples = 3<br/>value = [0, 0, 2, 0, 0, 1, 0]>, fillcolor="#9cf2a6"] ;
318 -> 319 ;
320 [label=<gini = 0.0<br/>samples = 2<br/>value = [0, 0, 2, 0, 0, 0, 0]>, fillcolor="#39e54d"] ;
319 -> 320 ;
321 [label=<gini = 0.0<br/>samples = 1<br/>value = [0, 0, 0, 0, 0, 1, 0]>, fillcolor="#b139e5"] ;
319 -> 321 ;
322 [label=<Elevation &le; 2337.5<br/>gini = 0.074<br/>samples = 575<br/>value = [0, 0, 9, 553, 0, 13, 0]>, fillcolor="#41e6e3"] ;
318 -> 322 ;
323 [label=<Hillshade_Noon &le; 188.5<br/>gini = 0.055<br/>samples = 538<br/>value = [0, 0, 6, 523, 0, 9, 0]>, fillcolor="#3fe6e3"] ;
322 -> 323 ;
324 [label=<Elevation &le; 2252.5<br/>gini = 0.302<br/>samples = 23<br/>value = [0, 0, 2, 19, 0, 2, 0]>, fillcolor="#5feae8"] ;
323 -> 324 ;
325 [label=<Slope &le; 21.5<br/>gini = 0.095<br/>samples = 20<br/>value = [0, 0, 1, 19, 0, 0, 0]>, fillcolor="#43e6e4"] ;
324 -> 325 ;
326 [label=<gini = 0.0<br/>samples = 1<br/>value = [0, 0, 1, 0, 0, 0, 0]>, fillcolor="#39e54d"] ;
325 -> 326 ;
327 [label=<gini = 0.0<br/>samples = 19<br/>value = [0, 0, 0, 19, 0, 0, 0]>, fillcolor="#39e5e2"] ;
325 -> 327 ;
328 [label=<Soil_Type17 &le; 0.5<br/>gini = 0.444<br/>samples = 3<br/>value = [0, 0, 1, 0, 0, 2, 0]>, fillcolor="#d89cf2"] ;
324 -> 328 ;
329 [label=<gini = 0.0<br/>samples = 2<br/>value = [0, 0, 0, 0, 0, 2, 0]>, fillcolor="#b139e5"] ;
328 -> 329 ;
330 [label=<gini = 0.0<br/>samples = 1<br/>value = [0, 0, 1, 0, 0, 0, 0]>, fillcolor="#39e54d"] ;
328 -> 330 ;
331 [label=<Hillshade_9am &le; 202.5<br/>gini = 0.042<br/>samples = 515<br/>value = [0, 0, 4, 504, 0, 7, 0]>, fillcolor="#3de6e3"] ;
323 -> 331 ;
332 [label=<Horizontal_Distance_To_Roadways &le; 1345.0<br/>gini = 0.201<br/>samples = 45<br/>value = [0, 0, 1, 40, 0, 4, 0]>, fillcolor="#51e8e6"] ;
331 -> 332 ;
333 [label=<Horizontal_Distance_To_Roadways &le; 475.5<br/>gini = 0.095<br/>samples = 40<br/>value = [0, 0, 0, 38, 0, 2, 0]>, fillcolor="#43e6e4"] ;
332 -> 333 ;
334 [label=<Soil_Type10 &le; 0.5<br/>gini = 0.5<br/>samples = 2<br/>value = [0, 0, 0, 1, 0, 1, 0]>, fillcolor="#ffffff"] ;
333 -> 334 ;
335 [label=<gini = 0.0<br/>samples = 1<br/>value = [0, 0, 0, 1, 0, 0, 0]>, fillcolor="#39e5e2"] ;
334 -> 335 ;
336 [label=<gini = 0.0<br/>samples = 1<br/>value = [0, 0, 0, 0, 0, 1, 0]>, fillcolor="#b139e5"] ;
334 -> 336 ;
337 [label=<Elevation &le; 2280.5<br/>gini = 0.051<br/>samples = 38<br/>value = [0, 0, 0, 37, 0, 1, 0]>, fillcolor="#3ee6e3"] ;
333 -> 337 ;
338 [label=<gini = 0.0<br/>samples = 32<br/>value = [0, 0, 0, 32, 0, 0, 0]>, fillcolor="#39e5e2"] ;
337 -> 338 ;
339 [label=<Hillshade_3pm &le; 167.0<br/>gini = 0.278<br/>samples = 6<br/>value = [0, 0, 0, 5, 0, 1, 0]>, fillcolor="#61eae8"] ;
337 -> 339 ;
340 [label=<gini = 0.0<br/>samples = 1<br/>value = [0, 0, 0, 0, 0, 1, 0]>, fillcolor="#b139e5"] ;
339 -> 340 ;
341 [label=<gini = 0.0<br/>samples = 5<br/>value = [0, 0, 0, 5, 0, 0, 0]>, fillcolor="#39e5e2"] ;
339 -> 341 ;
342 [label=<Soil_Type10 &le; 0.5<br/>gini = 0.64<br/>samples = 5<br/>value = [0, 0, 1, 2, 0, 2, 0]>, fillcolor="#ffffff"] ;
332 -> 342 ;
343 [label=<Aspect &le; 322.0<br/>gini = 0.5<br/>samples = 4<br/>value = [0, 0, 0, 2, 0, 2, 0]>, fillcolor="#ffffff"] ;
342 -> 343 ;
344 [label=<gini = 0.0<br/>samples = 1<br/>value = [0, 0, 0, 0, 0, 1, 0]>, fillcolor="#b139e5"] ;
343 -> 344 ;
345 [label=<Soil_Type14 &le; 0.5<br/>gini = 0.444<br/>samples = 3<br/>value = [0, 0, 0, 2, 0, 1, 0]>, fillcolor="#9cf2f0"] ;
343 -> 345 ;
346 [label=<gini = 0.0<br/>samples = 2<br/>value = [0, 0, 0, 2, 0, 0, 0]>, fillcolor="#39e5e2"] ;
345 -> 346 ;
347 [label=<gini = 0.0<br/>samples = 1<br/>value = [0, 0, 0, 0, 0, 1, 0]>, fillcolor="#b139e5"] ;
345 -> 347 ;
348 [label=<gini = 0.0<br/>samples = 1<br/>value = [0, 0, 1, 0, 0, 0, 0]>, fillcolor="#39e54d"] ;
342 -> 348 ;
349 [label=<Slope &le; 24.5<br/>gini = 0.025<br/>samples = 470<br/>value = [0, 0, 3, 464, 0, 3, 0]>, fillcolor="#3ce5e2"] ;
331 -> 349 ;
350 [label=<Aspect &le; 348.5<br/>gini = 0.022<br/>samples = 461<br/>value = [0, 0, 2, 456, 0, 3, 0]>, fillcolor="#3be5e2"] ;
349 -> 350 ;
351 [label=<Horizontal_Distance_To_Roadways &le; 1582.0<br/>gini = 0.018<br/>samples = 450<br/>value = [0, 0, 1, 446, 0, 3, 0]>, fillcolor="#3be5e2"] ;
350 -> 351 ;
352 [label=<Horizontal_Distance_To_Roadways &le; 183.5<br/>gini = 0.014<br/>samples = 439<br/>value = [0, 0, 0, 436, 0, 3, 0]>, fillcolor="#3ae5e2"] ;
351 -> 352 ;
353 [label=<Horizontal_Distance_To_Fire_Points &le; 1103.0<br/>gini = 0.117<br/>samples = 16<br/>value = [0, 0, 0, 15, 0, 1, 0]>, fillcolor="#46e7e4"] ;
352 -> 353 ;
354 [label=<gini = 0.0<br/>samples = 15<br/>value = [0, 0, 0, 15, 0, 0, 0]>, fillcolor="#39e5e2"] ;
353 -> 354 ;
355 [label=<gini = 0.0<br/>samples = 1<br/>value = [0, 0, 0, 0, 0, 1, 0]>, fillcolor="#b139e5"] ;
353 -> 355 ;
356 [label=<Soil_Type6 &le; 0.5<br/>gini = 0.009<br/>samples = 423<br/>value = [0, 0, 0, 421, 0, 2, 0]>, fillcolor="#3ae5e2"] ;
352 -> 356 ;
357 [label=<Horizontal_Distance_To_Roadways &le; 1345.0<br/>gini = 0.005<br/>samples = 402<br/>value = [0, 0, 0, 401, 0, 1, 0]>, fillcolor="#39e5e2"] ;
356 -> 357 ;
358 [label=<gini = 0.0<br/>samples = 345<br/>value = [0, 0, 0, 345, 0, 0, 0]>, fillcolor="#39e5e2"] ;
357 -> 358 ;
359 [label=<Horizontal_Distance_To_Roadways &le; 1352.0<br/>gini = 0.034<br/>samples = 57<br/>value = [0, 0, 0, 56, 0, 1, 0]>, fillcolor="#3de5e3"] ;
357 -> 359 ;
360 [label=<gini = 0.0<br/>samples = 1<br/>value = [0, 0, 0, 0, 0, 1, 0]>, fillcolor="#b139e5"] ;
359 -> 360 ;
361 [label=<gini = 0.0<br/>samples = 56<br/>value = [0, 0, 0, 56, 0, 0, 0]>, fillcolor="#39e5e2"] ;
359 -> 361 ;
362 [label=<Hillshade_9am &le; 215.5<br/>gini = 0.091<br/>samples = 21<br/>value = [0, 0, 0, 20, 0, 1, 0]>, fillcolor="#43e6e3"] ;
356 -> 362 ;
363 [label=<Elevation &le; 2266.0<br/>gini = 0.375<br/>samples = 4<br/>value = [0, 0, 0, 3, 0, 1, 0]>, fillcolor="#7beeec"] ;
362 -> 363 ;
364 [label=<gini = 0.0<br/>samples = 1<br/>value = [0, 0, 0, 0, 0, 1, 0]>, fillcolor="#b139e5"] ;
363 -> 364 ;
365 [label=<gini = 0.0<br/>samples = 3<br/>value = [0, 0, 0, 3, 0, 0, 0]>, fillcolor="#39e5e2"] ;
363 -> 365 ;
366 [label=<gini = 0.0<br/>samples = 17<br/>value = [0, 0, 0, 17, 0, 0, 0]>, fillcolor="#39e5e2"] ;
362 -> 366 ;
367 [label=<Elevation &le; 2265.0<br/>gini = 0.165<br/>samples = 11<br/>value = [0, 0, 1, 10, 0, 0, 0]>, fillcolor="#4de8e5"] ;
351 -> 367 ;
368 [label=<gini = 0.0<br/>samples = 10<br/>value = [0, 0, 0, 10, 0, 0, 0]>, fillcolor="#39e5e2"] ;
367 -> 368 ;
369 [label=<gini = 0.0<br/>samples = 1<br/>value = [0, 0, 1, 0, 0, 0, 0]>, fillcolor="#39e54d"] ;
367 -> 369 ;
370 [label=<Aspect &le; 349.5<br/>gini = 0.165<br/>samples = 11<br/>value = [0, 0, 1, 10, 0, 0, 0]>, fillcolor="#4de8e5"] ;
350 -> 370 ;
371 [label=<gini = 0.0<br/>samples = 1<br/>value = [0, 0, 1, 0, 0, 0, 0]>, fillcolor="#39e54d"] ;
370 -> 371 ;
372 [label=<gini = 0.0<br/>samples = 10<br/>value = [0, 0, 0, 10, 0, 0, 0]>, fillcolor="#39e5e2"] ;
370 -> 372 ;
373 [label=<Elevation &le; 2269.5<br/>gini = 0.198<br/>samples = 9<br/>value = [0, 0, 1, 8, 0, 0, 0]>, fillcolor="#52e8e6"] ;
349 -> 373 ;
374 [label=<gini = 0.0<br/>samples = 8<br/>value = [0, 0, 0, 8, 0, 0, 0]>, fillcolor="#39e5e2"] ;
373 -> 374 ;
375 [label=<gini = 0.0<br/>samples = 1<br/>value = [0, 0, 1, 0, 0, 0, 0]>, fillcolor="#39e54d"] ;
373 -> 375 ;
376 [label=<Soil_Type16 &le; 0.5<br/>gini = 0.324<br/>samples = 37<br/>value = [0, 0, 3, 30, 0, 4, 0]>, fillcolor="#63ebe8"] ;
322 -> 376 ;
377 [label=<Horizontal_Distance_To_Roadways &le; 329.0<br/>gini = 0.22<br/>samples = 33<br/>value = [0, 0, 2, 29, 0, 2, 0]>, fillcolor="#53e8e6"] ;
376 -> 377 ;
378 [label=<gini = 0.0<br/>samples = 1<br/>value = [0, 0, 1, 0, 0, 0, 0]>, fillcolor="#39e54d"] ;
377 -> 378 ;
379 [label=<Hillshade_Noon &le; 212.0<br/>gini = 0.174<br/>samples = 32<br/>value = [0, 0, 1, 29, 0, 2, 0]>, fillcolor="#4de8e5"] ;
377 -> 379 ;
380 [label=<Horizontal_Distance_To_Fire_Points &le; 1312.0<br/>gini = 0.531<br/>samples = 8<br/>value = [0, 0, 1, 5, 0, 2, 0]>, fillcolor="#9cf2f0"] ;
379 -> 380 ;
381 [label=<Aspect &le; 45.5<br/>gini = 0.278<br/>samples = 6<br/>value = [0, 0, 1, 5, 0, 0, 0]>, fillcolor="#61eae8"] ;
380 -> 381 ;
382 [label=<gini = 0.0<br/>samples = 1<br/>value = [0, 0, 1, 0, 0, 0, 0]>, fillcolor="#39e54d"] ;
381 -> 382 ;
383 [label=<gini = 0.0<br/>samples = 5<br/>value = [0, 0, 0, 5, 0, 0, 0]>, fillcolor="#39e5e2"] ;
381 -> 383 ;
384 [label=<gini = 0.0<br/>samples = 2<br/>value = [0, 0, 0, 0, 0, 2, 0]>, fillcolor="#b139e5"] ;
380 -> 384 ;
385 [label=<gini = 0.0<br/>samples = 24<br/>value = [0, 0, 0, 24, 0, 0, 0]>, fillcolor="#39e5e2"] ;
379 -> 385 ;
386 [label=<Hillshade_9am &le; 206.0<br/>gini = 0.625<br/>samples = 4<br/>value = [0, 0, 1, 1, 0, 2, 0]>, fillcolor="#e5bdf6"] ;
376 -> 386 ;
387 [label=<gini = 0.0<br/>samples = 2<br/>value = [0, 0, 0, 0, 0, 2, 0]>, fillcolor="#b139e5"] ;
386 -> 387 ;
388 [label=<Aspect &le; 39.5<br/>gini = 0.5<br/>samples = 2<br/>value = [0, 0, 1, 1, 0, 0, 0]>, fillcolor="#ffffff"] ;
386 -> 388 ;
389 [label=<gini = 0.0<br/>samples = 1<br/>value = [0, 0, 1, 0, 0, 0, 0]>, fillcolor="#39e54d"] ;
388 -> 389 ;
390 [label=<gini = 0.0<br/>samples = 1<br/>value = [0, 0, 0, 1, 0, 0, 0]>, fillcolor="#39e5e2"] ;
388 -> 390 ;
391 [label=<gini = 0.0<br/>samples = 7<br/>value = [0, 0, 0, 0, 0, 7, 0]>, fillcolor="#b139e5"] ;
317 -> 391 ;
392 [label=<Soil_Type3 &le; 0.5<br/>gini = 0.524<br/>samples = 1347<br/>value = [0, 1, 306, 859, 0, 181, 0]>, fillcolor="#96f1f0"] ;
316 -> 392 ;
393 [label=<Horizontal_Distance_To_Roadways &le; 825.0<br/>gini = 0.651<br/>samples = 746<br/>value = [0, 1, 255, 313, 0, 177, 0]>, fillcolor="#e8fcfc"] ;
392 -> 393 ;
394 [label=<Horizontal_Distance_To_Hydrology &le; 51.0<br/>gini = 0.617<br/>samples = 355<br/>value = [0, 1, 182, 73, 0, 99, 0]>, fillcolor="#bff7c5"] ;
393 -> 394 ;
395 [label=<Hillshade_Noon &le; 214.5<br/>gini = 0.621<br/>samples = 87<br/>value = [0, 1, 26, 44, 0, 16, 0]>, fillcolor="#c5f7f6"] ;
394 -> 395 ;
396 [label=<Slope &le; 31.5<br/>gini = 0.677<br/>samples = 38<br/>value = [0, 1, 10, 13, 0, 14, 0]>, fillcolor="#fcf7fe"] ;
395 -> 396 ;
397 [label=<Elevation &le; 2066.5<br/>gini = 0.641<br/>samples = 33<br/>value = [0, 1, 5, 13, 0, 14, 0]>, fillcolor="#fbf5fe"] ;
396 -> 397 ;
398 [label=<Elevation &le; 1996.0<br/>gini = 0.444<br/>samples = 18<br/>value = [0, 0, 0, 12, 0, 6, 0]>, fillcolor="#9cf2f0"] ;
397 -> 398 ;
399 [label=<gini = 0.0<br/>samples = 5<br/>value = [0, 0, 0, 0, 0, 5, 0]>, fillcolor="#b139e5"] ;
398 -> 399 ;
400 [label=<Hillshade_Noon &le; 168.5<br/>gini = 0.142<br/>samples = 13<br/>value = [0, 0, 0, 12, 0, 1, 0]>, fillcolor="#49e7e4"] ;
398 -> 400 ;
401 [label=<gini = 0.0<br/>samples = 1<br/>value = [0, 0, 0, 0, 0, 1, 0]>, fillcolor="#b139e5"] ;
400 -> 401 ;
402 [label=<gini = 0.0<br/>samples = 12<br/>value = [0, 0, 0, 12, 0, 0, 0]>, fillcolor="#39e5e2"] ;
400 -> 402 ;
403 [label=<Aspect &le; 106.0<br/>gini = 0.596<br/>samples = 15<br/>value = [0, 1, 5, 1, 0, 8, 0]>, fillcolor="#e8c4f7"] ;
397 -> 403 ;
404 [label=<Soil_Type4 &le; 0.5<br/>gini = 0.556<br/>samples = 13<br/>value = [0, 1, 3, 1, 0, 8, 0]>, fillcolor="#d89cf2"] ;
403 -> 404 ;
405 [label=<Horizontal_Distance_To_Hydrology &le; 36.0<br/>gini = 0.43<br/>samples = 11<br/>value = [0, 1, 2, 0, 0, 8, 0]>, fillcolor="#cb7bee"] ;
404 -> 405 ;
406 [label=<Horizontal_Distance_To_Fire_Points &le; 395.0<br/>gini = 0.32<br/>samples = 10<br/>value = [0, 0, 2, 0, 0, 8, 0]>, fillcolor="#c46aec"] ;
405 -> 406 ;
407 [label=<gini = 0.0<br/>samples = 1<br/>value = [0, 0, 1, 0, 0, 0, 0]>, fillcolor="#39e54d"] ;
406 -> 407 ;
408 [label=<Hillshade_Noon &le; 168.0<br/>gini = 0.198<br/>samples = 9<br/>value = [0, 0, 1, 0, 0, 8, 0]>, fillcolor="#bb52e8"] ;
406 -> 408 ;
409 [label=<gini = 0.0<br/>samples = 1<br/>value = [0, 0, 1, 0, 0, 0, 0]>, fillcolor="#39e54d"] ;
408 -> 409 ;
410 [label=<gini = 0.0<br/>samples = 8<br/>value = [0, 0, 0, 0, 0, 8, 0]>, fillcolor="#b139e5"] ;
408 -> 410 ;
411 [label=<gini = 0.0<br/>samples = 1<br/>value = [0, 1, 0, 0, 0, 0, 0]>, fillcolor="#b7e539"] ;
405 -> 411 ;
412 [label=<Hillshade_3pm &le; 92.5<br/>gini = 0.5<br/>samples = 2<br/>value = [0, 0, 1, 1, 0, 0, 0]>, fillcolor="#ffffff"] ;
404 -> 412 ;
413 [label=<gini = 0.0<br/>samples = 1<br/>value = [0, 0, 0, 1, 0, 0, 0]>, fillcolor="#39e5e2"] ;
412 -> 413 ;
414 [label=<gini = 0.0<br/>samples = 1<br/>value = [0, 0, 1, 0, 0, 0, 0]>, fillcolor="#39e54d"] ;
412 -> 414 ;
415 [label=<gini = 0.0<br/>samples = 2<br/>value = [0, 0, 2, 0, 0, 0, 0]>, fillcolor="#39e54d"] ;
403 -> 415 ;
416 [label=<gini = 0.0<br/>samples = 5<br/>value = [0, 0, 5, 0, 0, 0, 0]>, fillcolor="#39e54d"] ;
396 -> 416 ;
417 [label=<Elevation &le; 2326.5<br/>gini = 0.491<br/>samples = 49<br/>value = [0, 0, 16, 31, 0, 2, 0]>, fillcolor="#a5f3f2"] ;
395 -> 417 ;
418 [label=<Aspect &le; 333.0<br/>gini = 0.393<br/>samples = 41<br/>value = [0, 0, 11, 30, 0, 0, 0]>, fillcolor="#82efed"] ;
417 -> 418 ;
419 [label=<Horizontal_Distance_To_Fire_Points &le; 436.5<br/>gini = 0.355<br/>samples = 39<br/>value = [0, 0, 9, 30, 0, 0, 0]>, fillcolor="#74edeb"] ;
418 -> 419 ;
420 [label=<Aspect &le; 148.0<br/>gini = 0.497<br/>samples = 13<br/>value = [0, 0, 6, 7, 0, 0, 0]>, fillcolor="#e3fbfb"] ;
419 -> 420 ;
421 [label=<gini = 0.0<br/>samples = 5<br/>value = [0, 0, 5, 0, 0, 0, 0]>, fillcolor="#39e54d"] ;
420 -> 421 ;
422 [label=<Hillshade_Noon &le; 250.5<br/>gini = 0.219<br/>samples = 8<br/>value = [0, 0, 1, 7, 0, 0, 0]>, fillcolor="#55e9e6"] ;
420 -> 422 ;
423 [label=<gini = 0.0<br/>samples = 7<br/>value = [0, 0, 0, 7, 0, 0, 0]>, fillcolor="#39e5e2"] ;
422 -> 423 ;
424 [label=<gini = 0.0<br/>samples = 1<br/>value = [0, 0, 1, 0, 0, 0, 0]>, fillcolor="#39e54d"] ;
422 -> 424 ;
425 [label=<Slope &le; 20.0<br/>gini = 0.204<br/>samples = 26<br/>value = [0, 0, 3, 23, 0, 0, 0]>, fillcolor="#53e8e6"] ;
419 -> 425 ;
426 [label=<Soil_Type10 &le; 0.5<br/>gini = 0.091<br/>samples = 21<br/>value = [0, 0, 1, 20, 0, 0, 0]>, fillcolor="#43e6e3"] ;
425 -> 426 ;
427 [label=<gini = 0.0<br/>samples = 19<br/>value = [0, 0, 0, 19, 0, 0, 0]>, fillcolor="#39e5e2"] ;
426 -> 427 ;
428 [label=<Horizontal_Distance_To_Roadways &le; 392.0<br/>gini = 0.5<br/>samples = 2<br/>value = [0, 0, 1, 1, 0, 0, 0]>, fillcolor="#ffffff"] ;
426 -> 428 ;
429 [label=<gini = 0.0<br/>samples = 1<br/>value = [0, 0, 0, 1, 0, 0, 0]>, fillcolor="#39e5e2"] ;
428 -> 429 ;
430 [label=<gini = 0.0<br/>samples = 1<br/>value = [0, 0, 1, 0, 0, 0, 0]>, fillcolor="#39e54d"] ;
428 -> 430 ;
431 [label=<Hillshade_Noon &le; 239.0<br/>gini = 0.48<br/>samples = 5<br/>value = [0, 0, 2, 3, 0, 0, 0]>, fillcolor="#bdf6f5"] ;
425 -> 431 ;
432 [label=<Aspect &le; 128.5<br/>gini = 0.444<br/>samples = 3<br/>value = [0, 0, 2, 1, 0, 0, 0]>, fillcolor="#9cf2a6"] ;
431 -> 432 ;
433 [label=<gini = 0.0<br/>samples = 1<br/>value = [0, 0, 0, 1, 0, 0, 0]>, fillcolor="#39e5e2"] ;
432 -> 433 ;
434 [label=<gini = 0.0<br/>samples = 2<br/>value = [0, 0, 2, 0, 0, 0, 0]>, fillcolor="#39e54d"] ;
432 -> 434 ;
435 [label=<gini = 0.0<br/>samples = 2<br/>value = [0, 0, 0, 2, 0, 0, 0]>, fillcolor="#39e5e2"] ;
431 -> 435 ;
436 [label=<gini = 0.0<br/>samples = 2<br/>value = [0, 0, 2, 0, 0, 0, 0]>, fillcolor="#39e54d"] ;
418 -> 436 ;
437 [label=<Hillshade_3pm &le; 148.5<br/>gini = 0.531<br/>samples = 8<br/>value = [0, 0, 5, 1, 0, 2, 0]>, fillcolor="#9cf2a6"] ;
417 -> 437 ;
438 [label=<Horizontal_Distance_To_Roadways &le; 530.5<br/>gini = 0.278<br/>samples = 6<br/>value = [0, 0, 5, 1, 0, 0, 0]>, fillcolor="#61ea71"] ;
437 -> 438 ;
439 [label=<gini = 0.0<br/>samples = 5<br/>value = [0, 0, 5, 0, 0, 0, 0]>, fillcolor="#39e54d"] ;
438 -> 439 ;
440 [label=<gini = 0.0<br/>samples = 1<br/>value = [0, 0, 0, 1, 0, 0, 0]>, fillcolor="#39e5e2"] ;
438 -> 440 ;
441 [label=<gini = 0.0<br/>samples = 2<br/>value = [0, 0, 0, 0, 0, 2, 0]>, fillcolor="#b139e5"] ;
437 -> 441 ;
442 [label=<Elevation &le; 2008.5<br/>gini = 0.554<br/>samples = 268<br/>value = [0, 0, 156, 29, 0, 83, 0]>, fillcolor="#b1f5b9"] ;
394 -> 442 ;
443 [label=<Aspect &le; 91.0<br/>gini = 0.159<br/>samples = 23<br/>value = [0, 0, 2, 0, 0, 21, 0]>, fillcolor="#b84ce7"] ;
442 -> 443 ;
444 [label=<gini = 0.0<br/>samples = 21<br/>value = [0, 0, 0, 0, 0, 21, 0]>, fillcolor="#b139e5"] ;
443 -> 444 ;
445 [label=<gini = 0.0<br/>samples = 2<br/>value = [0, 0, 2, 0, 0, 0, 0]>, fillcolor="#39e54d"] ;
443 -> 445 ;
446 [label=<Soil_Type10 &le; 0.5<br/>gini = 0.527<br/>samples = 245<br/>value = [0, 0, 154, 29, 0, 62, 0]>, fillcolor="#9bf2a6"] ;
442 -> 446 ;
447 [label=<Horizontal_Distance_To_Fire_Points &le; 887.5<br/>gini = 0.382<br/>samples = 173<br/>value = [0, 0, 132, 10, 0, 31, 0]>, fillcolor="#72ed80"] ;
446 -> 447 ;
448 [label=<Horizontal_Distance_To_Fire_Points &le; 280.0<br/>gini = 0.219<br/>samples = 144<br/>value = [0, 0, 126, 0, 0, 18, 0]>, fillcolor="#55e966"] ;
447 -> 448 ;
449 [label=<Horizontal_Distance_To_Hydrology &le; 365.5<br/>gini = 0.472<br/>samples = 21<br/>value = [0, 0, 13, 0, 0, 8, 0]>, fillcolor="#b3f5bb"] ;
448 -> 449 ;
450 [label=<Hillshade_9am &le; 246.0<br/>gini = 0.133<br/>samples = 14<br/>value = [0, 0, 13, 0, 0, 1, 0]>, fillcolor="#48e75b"] ;
449 -> 450 ;
451 [label=<gini = 0.0<br/>samples = 13<br/>value = [0, 0, 13, 0, 0, 0, 0]>, fillcolor="#39e54d"] ;
450 -> 451 ;
452 [label=<gini = 0.0<br/>samples = 1<br/>value = [0, 0, 0, 0, 0, 1, 0]>, fillcolor="#b139e5"] ;
450 -> 452 ;
453 [label=<gini = 0.0<br/>samples = 7<br/>value = [0, 0, 0, 0, 0, 7, 0]>, fillcolor="#b139e5"] ;
449 -> 453 ;
454 [label=<Hillshade_Noon &le; 197.5<br/>gini = 0.149<br/>samples = 123<br/>value = [0, 0, 113, 0, 0, 10, 0]>, fillcolor="#4be75d"] ;
448 -> 454 ;
455 [label=<Soil_Type2 &le; 0.5<br/>gini = 0.311<br/>samples = 52<br/>value = [0, 0, 42, 0, 0, 10, 0]>, fillcolor="#68eb77"] ;
454 -> 455 ;
456 [label=<Soil_Type4 &le; 0.5<br/>gini = 0.245<br/>samples = 49<br/>value = [0, 0, 42, 0, 0, 7, 0]>, fillcolor="#5ae96b"] ;
455 -> 456 ;
457 [label=<Horizontal_Distance_To_Fire_Points &le; 703.5<br/>gini = 0.13<br/>samples = 43<br/>value = [0, 0, 40, 0, 0, 3, 0]>, fillcolor="#48e75a"] ;
456 -> 457 ;
458 [label=<gini = 0.0<br/>samples = 39<br/>value = [0, 0, 39, 0, 0, 0, 0]>, fillcolor="#39e54d"] ;
457 -> 458 ;
459 [label=<Hillshade_3pm &le; 79.0<br/>gini = 0.375<br/>samples = 4<br/>value = [0, 0, 1, 0, 0, 3, 0]>, fillcolor="#cb7bee"] ;
457 -> 459 ;
460 [label=<gini = 0.0<br/>samples = 3<br/>value = [0, 0, 0, 0, 0, 3, 0]>, fillcolor="#b139e5"] ;
459 -> 460 ;
461 [label=<gini = 0.0<br/>samples = 1<br/>value = [0, 0, 1, 0, 0, 0, 0]>, fillcolor="#39e54d"] ;
459 -> 461 ;
462 [label=<Elevation &le; 2276.0<br/>gini = 0.444<br/>samples = 6<br/>value = [0, 0, 2, 0, 0, 4, 0]>, fillcolor="#d89cf2"] ;
456 -> 462 ;
463 [label=<gini = 0.0<br/>samples = 4<br/>value = [0, 0, 0, 0, 0, 4, 0]>, fillcolor="#b139e5"] ;
462 -> 463 ;
464 [label=<gini = 0.0<br/>samples = 2<br/>value = [0, 0, 2, 0, 0, 0, 0]>, fillcolor="#39e54d"] ;
462 -> 464 ;
465 [label=<gini = 0.0<br/>samples = 3<br/>value = [0, 0, 0, 0, 0, 3, 0]>, fillcolor="#b139e5"] ;
455 -> 465 ;
466 [label=<gini = 0.0<br/>samples = 71<br/>value = [0, 0, 71, 0, 0, 0, 0]>, fillcolor="#39e54d"] ;
454 -> 466 ;
467 [label=<Horizontal_Distance_To_Fire_Points &le; 1478.5<br/>gini = 0.637<br/>samples = 29<br/>value = [0, 0, 6, 10, 0, 13, 0]>, fillcolor="#f3e0fb"] ;
447 -> 467 ;
468 [label=<Horizontal_Distance_To_Roadways &le; 298.0<br/>gini = 0.46<br/>samples = 19<br/>value = [0, 0, 5, 1, 0, 13, 0]>, fillcolor="#d28ef0"] ;
467 -> 468 ;
469 [label=<gini = 0.0<br/>samples = 3<br/>value = [0, 0, 3, 0, 0, 0, 0]>, fillcolor="#39e54d"] ;
468 -> 469 ;
470 [label=<Elevation &le; 2102.5<br/>gini = 0.32<br/>samples = 16<br/>value = [0, 0, 2, 1, 0, 13, 0]>, fillcolor="#c263eb"] ;
468 -> 470 ;
471 [label=<Horizontal_Distance_To_Fire_Points &le; 908.0<br/>gini = 0.444<br/>samples = 3<br/>value = [0, 0, 2, 0, 0, 1, 0]>, fillcolor="#9cf2a6"] ;
470 -> 471 ;
472 [label=<gini = 0.0<br/>samples = 1<br/>value = [0, 0, 0, 0, 0, 1, 0]>, fillcolor="#b139e5"] ;
471 -> 472 ;
473 [label=<gini = 0.0<br/>samples = 2<br/>value = [0, 0, 2, 0, 0, 0, 0]>, fillcolor="#39e54d"] ;
471 -> 473 ;
474 [label=<Horizontal_Distance_To_Hydrology &le; 63.5<br/>gini = 0.142<br/>samples = 13<br/>value = [0, 0, 0, 1, 0, 12, 0]>, fillcolor="#b749e7"] ;
470 -> 474 ;
475 [label=<gini = 0.0<br/>samples = 1<br/>value = [0, 0, 0, 1, 0, 0, 0]>, fillcolor="#39e5e2"] ;
474 -> 475 ;
476 [label=<gini = 0.0<br/>samples = 12<br/>value = [0, 0, 0, 0, 0, 12, 0]>, fillcolor="#b139e5"] ;
474 -> 476 ;
477 [label=<Hillshade_9am &le; 221.5<br/>gini = 0.18<br/>samples = 10<br/>value = [0, 0, 1, 9, 0, 0, 0]>, fillcolor="#4fe8e5"] ;
467 -> 477 ;
478 [label=<gini = 0.0<br/>samples = 1<br/>value = [0, 0, 1, 0, 0, 0, 0]>, fillcolor="#39e54d"] ;
477 -> 478 ;
479 [label=<gini = 0.0<br/>samples = 9<br/>value = [0, 0, 0, 9, 0, 0, 0]>, fillcolor="#39e5e2"] ;
477 -> 479 ;
480 [label=<Horizontal_Distance_To_Fire_Points &le; 419.5<br/>gini = 0.652<br/>samples = 72<br/>value = [0, 0, 22, 19, 0, 31, 0]>, fillcolor="#f1dbfa"] ;
446 -> 480 ;
481 [label=<Aspect &le; 48.0<br/>gini = 0.54<br/>samples = 30<br/>value = [0, 0, 3, 18, 0, 9, 0]>, fillcolor="#aaf4f3"] ;
480 -> 481 ;
482 [label=<Hillshade_Noon &le; 152.5<br/>gini = 0.5<br/>samples = 12<br/>value = [0, 0, 2, 2, 0, 8, 0]>, fillcolor="#d088ef"] ;
481 -> 482 ;
483 [label=<Elevation &le; 2310.0<br/>gini = 0.444<br/>samples = 3<br/>value = [0, 0, 2, 1, 0, 0, 0]>, fillcolor="#9cf2a6"] ;
482 -> 483 ;
484 [label=<gini = 0.0<br/>samples = 2<br/>value = [0, 0, 2, 0, 0, 0, 0]>, fillcolor="#39e54d"] ;
483 -> 484 ;
485 [label=<gini = 0.0<br/>samples = 1<br/>value = [0, 0, 0, 1, 0, 0, 0]>, fillcolor="#39e5e2"] ;
483 -> 485 ;
486 [label=<Horizontal_Distance_To_Roadways &le; 630.5<br/>gini = 0.198<br/>samples = 9<br/>value = [0, 0, 0, 1, 0, 8, 0]>, fillcolor="#bb52e8"] ;
482 -> 486 ;
487 [label=<gini = 0.0<br/>samples = 8<br/>value = [0, 0, 0, 0, 0, 8, 0]>, fillcolor="#b139e5"] ;
486 -> 487 ;
488 [label=<gini = 0.0<br/>samples = 1<br/>value = [0, 0, 0, 1, 0, 0, 0]>, fillcolor="#39e5e2"] ;
486 -> 488 ;
489 [label=<Hillshade_3pm &le; 173.5<br/>gini = 0.204<br/>samples = 18<br/>value = [0, 0, 1, 16, 0, 1, 0]>, fillcolor="#50e8e5"] ;
481 -> 489 ;
490 [label=<Horizontal_Distance_To_Fire_Points &le; 274.5<br/>gini = 0.111<br/>samples = 17<br/>value = [0, 0, 0, 16, 0, 1, 0]>, fillcolor="#45e7e4"] ;
489 -> 490 ;
491 [label=<Horizontal_Distance_To_Roadways &le; 441.0<br/>gini = 0.5<br/>samples = 2<br/>value = [0, 0, 0, 1, 0, 1, 0]>, fillcolor="#ffffff"] ;
490 -> 491 ;
492 [label=<gini = 0.0<br/>samples = 1<br/>value = [0, 0, 0, 0, 0, 1, 0]>, fillcolor="#b139e5"] ;
491 -> 492 ;
493 [label=<gini = 0.0<br/>samples = 1<br/>value = [0, 0, 0, 1, 0, 0, 0]>, fillcolor="#39e5e2"] ;
491 -> 493 ;
494 [label=<gini = 0.0<br/>samples = 15<br/>value = [0, 0, 0, 15, 0, 0, 0]>, fillcolor="#39e5e2"] ;
490 -> 494 ;
495 [label=<gini = 0.0<br/>samples = 1<br/>value = [0, 0, 1, 0, 0, 0, 0]>, fillcolor="#39e54d"] ;
489 -> 495 ;
496 [label=<Vertical_Distance_To_Hydrology &le; 10.5<br/>gini = 0.52<br/>samples = 42<br/>value = [0, 0, 19, 1, 0, 22, 0]>, fillcolor="#f5e5fc"] ;
480 -> 496 ;
497 [label=<gini = 0.0<br/>samples = 8<br/>value = [0, 0, 0, 0, 0, 8, 0]>, fillcolor="#b139e5"] ;
496 -> 497 ;
498 [label=<Hillshade_Noon &le; 160.5<br/>gini = 0.517<br/>samples = 34<br/>value = [0, 0, 19, 1, 0, 14, 0]>, fillcolor="#cef8d2"] ;
496 -> 498 ;
499 [label=<gini = 0.0<br/>samples = 6<br/>value = [0, 0, 0, 0, 0, 6, 0]>, fillcolor="#b139e5"] ;
498 -> 499 ;
500 [label=<Horizontal_Distance_To_Fire_Points &le; 539.5<br/>gini = 0.457<br/>samples = 28<br/>value = [0, 0, 19, 1, 0, 8, 0]>, fillcolor="#92f19d"] ;
498 -> 500 ;
501 [label=<Elevation &le; 2052.0<br/>gini = 0.444<br/>samples = 3<br/>value = [0, 0, 0, 1, 0, 2, 0]>, fillcolor="#d89cf2"] ;
500 -> 501 ;
502 [label=<gini = 0.0<br/>samples = 1<br/>value = [0, 0, 0, 1, 0, 0, 0]>, fillcolor="#39e5e2"] ;
501 -> 502 ;
503 [label=<gini = 0.0<br/>samples = 2<br/>value = [0, 0, 0, 0, 0, 2, 0]>, fillcolor="#b139e5"] ;
501 -> 503 ;
504 [label=<Aspect &le; 48.5<br/>gini = 0.365<br/>samples = 25<br/>value = [0, 0, 19, 0, 0, 6, 0]>, fillcolor="#78ed85"] ;
500 -> 504 ;
505 [label=<Horizontal_Distance_To_Roadways &le; 395.5<br/>gini = 0.48<br/>samples = 15<br/>value = [0, 0, 9, 0, 0, 6, 0]>, fillcolor="#bdf6c4"] ;
504 -> 505 ;
506 [label=<Slope &le; 29.0<br/>gini = 0.32<br/>samples = 5<br/>value = [0, 0, 1, 0, 0, 4, 0]>, fillcolor="#c46aec"] ;
505 -> 506 ;
507 [label=<gini = 0.0<br/>samples = 4<br/>value = [0, 0, 0, 0, 0, 4, 0]>, fillcolor="#b139e5"] ;
506 -> 507 ;
508 [label=<gini = 0.0<br/>samples = 1<br/>value = [0, 0, 1, 0, 0, 0, 0]>, fillcolor="#39e54d"] ;
506 -> 508 ;
509 [label=<Elevation &le; 2063.0<br/>gini = 0.32<br/>samples = 10<br/>value = [0, 0, 8, 0, 0, 2, 0]>, fillcolor="#6aec79"] ;
505 -> 509 ;
510 [label=<gini = 0.0<br/>samples = 2<br/>value = [0, 0, 0, 0, 0, 2, 0]>, fillcolor="#b139e5"] ;
509 -> 510 ;
511 [label=<gini = 0.0<br/>samples = 8<br/>value = [0, 0, 8, 0, 0, 0, 0]>, fillcolor="#39e54d"] ;
509 -> 511 ;
512 [label=<gini = 0.0<br/>samples = 10<br/>value = [0, 0, 10, 0, 0, 0, 0]>, fillcolor="#39e54d"] ;
504 -> 512 ;
513 [label=<Horizontal_Distance_To_Hydrology &le; 316.0<br/>gini = 0.549<br/>samples = 391<br/>value = [0, 0, 73, 240, 0, 78, 0]>, fillcolor="#99f2f0"] ;
393 -> 513 ;
514 [label=<Elevation &le; 2206.5<br/>gini = 0.622<br/>samples = 282<br/>value = [0, 0, 63, 142, 0, 77, 0]>, fillcolor="#c0f7f6"] ;
513 -> 514 ;
515 [label=<Hillshade_Noon &le; 172.5<br/>gini = 0.175<br/>samples = 106<br/>value = [0, 0, 6, 96, 0, 4, 0]>, fillcolor="#4de8e5"] ;
514 -> 515 ;
516 [label=<Elevation &le; 2093.0<br/>gini = 0.32<br/>samples = 5<br/>value = [0, 0, 4, 1, 0, 0, 0]>, fillcolor="#6aec79"] ;
515 -> 516 ;
517 [label=<gini = 0.0<br/>samples = 1<br/>value = [0, 0, 0, 1, 0, 0, 0]>, fillcolor="#39e5e2"] ;
516 -> 517 ;
518 [label=<gini = 0.0<br/>samples = 4<br/>value = [0, 0, 4, 0, 0, 0, 0]>, fillcolor="#39e54d"] ;
516 -> 518 ;
519 [label=<Horizontal_Distance_To_Roadways &le; 1380.5<br/>gini = 0.113<br/>samples = 101<br/>value = [0, 0, 2, 95, 0, 4, 0]>, fillcolor="#45e7e4"] ;
515 -> 519 ;
520 [label=<Soil_Type10 &le; 0.5<br/>gini = 0.042<br/>samples = 93<br/>value = [0, 0, 1, 91, 0, 1, 0]>, fillcolor="#3de6e3"] ;
519 -> 520 ;
521 [label=<gini = 0.0<br/>samples = 80<br/>value = [0, 0, 0, 80, 0, 0, 0]>, fillcolor="#39e5e2"] ;
520 -> 521 ;
522 [label=<Horizontal_Distance_To_Roadways &le; 1262.5<br/>gini = 0.272<br/>samples = 13<br/>value = [0, 0, 1, 11, 0, 1, 0]>, fillcolor="#5ae9e7"] ;
520 -> 522 ;
523 [label=<gini = 0.0<br/>samples = 11<br/>value = [0, 0, 0, 11, 0, 0, 0]>, fillcolor="#39e5e2"] ;
522 -> 523 ;
524 [label=<Elevation &le; 2143.0<br/>gini = 0.5<br/>samples = 2<br/>value = [0, 0, 1, 0, 0, 1, 0]>, fillcolor="#ffffff"] ;
522 -> 524 ;
525 [label=<gini = 0.0<br/>samples = 1<br/>value = [0, 0, 1, 0, 0, 0, 0]>, fillcolor="#39e54d"] ;
524 -> 525 ;
526 [label=<gini = 0.0<br/>samples = 1<br/>value = [0, 0, 0, 0, 0, 1, 0]>, fillcolor="#b139e5"] ;
524 -> 526 ;
527 [label=<Horizontal_Distance_To_Fire_Points &le; 766.0<br/>gini = 0.594<br/>samples = 8<br/>value = [0, 0, 1, 4, 0, 3, 0]>, fillcolor="#d7faf9"] ;
519 -> 527 ;
528 [label=<Horizontal_Distance_To_Roadways &le; 1393.0<br/>gini = 0.56<br/>samples = 5<br/>value = [0, 0, 1, 1, 0, 3, 0]>, fillcolor="#d89cf2"] ;
527 -> 528 ;
529 [label=<gini = 0.0<br/>samples = 1<br/>value = [0, 0, 1, 0, 0, 0, 0]>, fillcolor="#39e54d"] ;
528 -> 529 ;
530 [label=<Hillshade_Noon &le; 203.0<br/>gini = 0.375<br/>samples = 4<br/>value = [0, 0, 0, 1, 0, 3, 0]>, fillcolor="#cb7bee"] ;
528 -> 530 ;
531 [label=<gini = 0.0<br/>samples = 2<br/>value = [0, 0, 0, 0, 0, 2, 0]>, fillcolor="#b139e5"] ;
530 -> 531 ;
532 [label=<Elevation &le; 2178.0<br/>gini = 0.5<br/>samples = 2<br/>value = [0, 0, 0, 1, 0, 1, 0]>, fillcolor="#ffffff"] ;
530 -> 532 ;
533 [label=<gini = 0.0<br/>samples = 1<br/>value = [0, 0, 0, 0, 0, 1, 0]>, fillcolor="#b139e5"] ;
532 -> 533 ;
534 [label=<gini = 0.0<br/>samples = 1<br/>value = [0, 0, 0, 1, 0, 0, 0]>, fillcolor="#39e5e2"] ;
532 -> 534 ;
535 [label=<gini = 0.0<br/>samples = 3<br/>value = [0, 0, 0, 3, 0, 0, 0]>, fillcolor="#39e5e2"] ;
527 -> 535 ;
536 [label=<Soil_Type6 &le; 0.5<br/>gini = 0.655<br/>samples = 176<br/>value = [0, 0, 57, 46, 0, 73, 0]>, fillcolor="#f5e4fc"] ;
514 -> 536 ;
537 [label=<Horizontal_Distance_To_Hydrology &le; 222.0<br/>gini = 0.566<br/>samples = 117<br/>value = [0, 0, 28, 20, 0, 69, 0]>, fillcolor="#dba4f3"] ;
536 -> 537 ;
538 [label=<Horizontal_Distance_To_Hydrology &le; 36.0<br/>gini = 0.502<br/>samples = 101<br/>value = [0, 0, 19, 15, 0, 67, 0]>, fillcolor="#d18bf0"] ;
537 -> 538 ;
539 [label=<Hillshade_9am &le; 205.5<br/>gini = 0.633<br/>samples = 32<br/>value = [0, 0, 6, 14, 0, 12, 0]>, fillcolor="#ebfcfc"] ;
538 -> 539 ;
540 [label=<Hillshade_3pm &le; 178.0<br/>gini = 0.219<br/>samples = 8<br/>value = [0, 0, 0, 1, 0, 7, 0]>, fillcolor="#bc55e9"] ;
539 -> 540 ;
541 [label=<gini = 0.0<br/>samples = 7<br/>value = [0, 0, 0, 0, 0, 7, 0]>, fillcolor="#b139e5"] ;
540 -> 541 ;
542 [label=<gini = 0.0<br/>samples = 1<br/>value = [0, 0, 0, 1, 0, 0, 0]>, fillcolor="#39e5e2"] ;
540 -> 542 ;
543 [label=<Vertical_Distance_To_Hydrology &le; 11.0<br/>gini = 0.601<br/>samples = 24<br/>value = [0, 0, 6, 13, 0, 5, 0]>, fillcolor="#b2f5f4"] ;
539 -> 543 ;
544 [label=<Elevation &le; 2309.0<br/>gini = 0.491<br/>samples = 17<br/>value = [0, 0, 1, 11, 0, 5, 0]>, fillcolor="#9cf2f0"] ;
543 -> 544 ;
545 [label=<Hillshade_3pm &le; 171.5<br/>gini = 0.418<br/>samples = 15<br/>value = [0, 0, 1, 11, 0, 3, 0]>, fillcolor="#7beeec"] ;
544 -> 545 ;
546 [label=<Hillshade_9am &le; 248.0<br/>gini = 0.337<br/>samples = 14<br/>value = [0, 0, 0, 11, 0, 3, 0]>, fillcolor="#6fecea"] ;
545 -> 546 ;
547 [label=<Soil_Type14 &le; 0.5<br/>gini = 0.26<br/>samples = 13<br/>value = [0, 0, 0, 11, 0, 2, 0]>, fillcolor="#5deae7"] ;
546 -> 547 ;
548 [label=<Soil_Type2 &le; 0.5<br/>gini = 0.153<br/>samples = 12<br/>value = [0, 0, 0, 11, 0, 1, 0]>, fillcolor="#4be7e5"] ;
547 -> 548 ;
549 [label=<gini = 0.0<br/>samples = 11<br/>value = [0, 0, 0, 11, 0, 0, 0]>, fillcolor="#39e5e2"] ;
548 -> 549 ;
550 [label=<gini = 0.0<br/>samples = 1<br/>value = [0, 0, 0, 0, 0, 1, 0]>, fillcolor="#b139e5"] ;
548 -> 550 ;
551 [label=<gini = 0.0<br/>samples = 1<br/>value = [0, 0, 0, 0, 0, 1, 0]>, fillcolor="#b139e5"] ;
547 -> 551 ;
552 [label=<gini = 0.0<br/>samples = 1<br/>value = [0, 0, 0, 0, 0, 1, 0]>, fillcolor="#b139e5"] ;
546 -> 552 ;
553 [label=<gini = 0.0<br/>samples = 1<br/>value = [0, 0, 1, 0, 0, 0, 0]>, fillcolor="#39e54d"] ;
545 -> 553 ;
554 [label=<gini = 0.0<br/>samples = 2<br/>value = [0, 0, 0, 0, 0, 2, 0]>, fillcolor="#b139e5"] ;
544 -> 554 ;
555 [label=<Horizontal_Distance_To_Fire_Points &le; 1015.0<br/>gini = 0.408<br/>samples = 7<br/>value = [0, 0, 5, 2, 0, 0, 0]>, fillcolor="#88ef94"] ;
543 -> 555 ;
556 [label=<gini = 0.0<br/>samples = 5<br/>value = [0, 0, 5, 0, 0, 0, 0]>, fillcolor="#39e54d"] ;
555 -> 556 ;
557 [label=<gini = 0.0<br/>samples = 2<br/>value = [0, 0, 0, 2, 0, 0, 0]>, fillcolor="#39e5e2"] ;
555 -> 557 ;
558 [label=<Vertical_Distance_To_Hydrology &le; 66.5<br/>gini = 0.329<br/>samples = 69<br/>value = [0, 0, 13, 1, 0, 55, 0]>, fillcolor="#c46aec"] ;
538 -> 558 ;
559 [label=<Horizontal_Distance_To_Hydrology &le; 51.0<br/>gini = 0.18<br/>samples = 50<br/>value = [0, 0, 5, 0, 0, 45, 0]>, fillcolor="#ba4fe8"] ;
558 -> 559 ;
560 [label=<Aspect &le; 107.0<br/>gini = 0.49<br/>samples = 7<br/>value = [0, 0, 3, 0, 0, 4, 0]>, fillcolor="#eccef8"] ;
559 -> 560 ;
561 [label=<Vertical_Distance_To_Hydrology &le; 1.0<br/>gini = 0.375<br/>samples = 4<br/>value = [0, 0, 3, 0, 0, 1, 0]>, fillcolor="#7bee88"] ;
560 -> 561 ;
562 [label=<gini = 0.0<br/>samples = 1<br/>value = [0, 0, 0, 0, 0, 1, 0]>, fillcolor="#b139e5"] ;
561 -> 562 ;
563 [label=<gini = 0.0<br/>samples = 3<br/>value = [0, 0, 3, 0, 0, 0, 0]>, fillcolor="#39e54d"] ;
561 -> 563 ;
564 [label=<gini = 0.0<br/>samples = 3<br/>value = [0, 0, 0, 0, 0, 3, 0]>, fillcolor="#b139e5"] ;
560 -> 564 ;
565 [label=<Vertical_Distance_To_Hydrology &le; 60.0<br/>gini = 0.089<br/>samples = 43<br/>value = [0, 0, 2, 0, 0, 41, 0]>, fillcolor="#b543e6"] ;
559 -> 565 ;
566 [label=<gini = 0.0<br/>samples = 34<br/>value = [0, 0, 0, 0, 0, 34, 0]>, fillcolor="#b139e5"] ;
565 -> 566 ;
567 [label=<Hillshade_Noon &le; 191.0<br/>gini = 0.346<br/>samples = 9<br/>value = [0, 0, 2, 0, 0, 7, 0]>, fillcolor="#c772ec"] ;
565 -> 567 ;
568 [label=<Slope &le; 28.0<br/>gini = 0.444<br/>samples = 3<br/>value = [0, 0, 2, 0, 0, 1, 0]>, fillcolor="#9cf2a6"] ;
567 -> 568 ;
569 [label=<gini = 0.0<br/>samples = 2<br/>value = [0, 0, 2, 0, 0, 0, 0]>, fillcolor="#39e54d"] ;
568 -> 569 ;
570 [label=<gini = 0.0<br/>samples = 1<br/>value = [0, 0, 0, 0, 0, 1, 0]>, fillcolor="#b139e5"] ;
568 -> 570 ;
571 [label=<gini = 0.0<br/>samples = 6<br/>value = [0, 0, 0, 0, 0, 6, 0]>, fillcolor="#b139e5"] ;
567 -> 571 ;
572 [label=<Hillshade_3pm &le; 106.0<br/>gini = 0.543<br/>samples = 19<br/>value = [0, 0, 8, 1, 0, 10, 0]>, fillcolor="#f1dbfa"] ;
558 -> 572 ;
573 [label=<Elevation &le; 2226.0<br/>gini = 0.219<br/>samples = 8<br/>value = [0, 0, 7, 1, 0, 0, 0]>, fillcolor="#55e966"] ;
572 -> 573 ;
574 [label=<gini = 0.0<br/>samples = 1<br/>value = [0, 0, 0, 1, 0, 0, 0]>, fillcolor="#39e5e2"] ;
573 -> 574 ;
575 [label=<gini = 0.0<br/>samples = 7<br/>value = [0, 0, 7, 0, 0, 0, 0]>, fillcolor="#39e54d"] ;
573 -> 575 ;
576 [label=<Vertical_Distance_To_Hydrology &le; 72.5<br/>gini = 0.165<br/>samples = 11<br/>value = [0, 0, 1, 0, 0, 10, 0]>, fillcolor="#b94de8"] ;
572 -> 576 ;
577 [label=<gini = 0.0<br/>samples = 1<br/>value = [0, 0, 1, 0, 0, 0, 0]>, fillcolor="#39e54d"] ;
576 -> 577 ;
578 [label=<gini = 0.0<br/>samples = 10<br/>value = [0, 0, 0, 0, 0, 10, 0]>, fillcolor="#b139e5"] ;
576 -> 578 ;
579 [label=<Slope &le; 23.5<br/>gini = 0.57<br/>samples = 16<br/>value = [0, 0, 9, 5, 0, 2, 0]>, fillcolor="#b7f6be"] ;
537 -> 579 ;
580 [label=<Elevation &le; 2348.5<br/>gini = 0.62<br/>samples = 10<br/>value = [0, 0, 3, 5, 0, 2, 0]>, fillcolor="#c6f8f7"] ;
579 -> 580 ;
581 [label=<Horizontal_Distance_To_Fire_Points &le; 827.5<br/>gini = 0.408<br/>samples = 7<br/>value = [0, 0, 0, 5, 0, 2, 0]>, fillcolor="#88efee"] ;
580 -> 581 ;
582 [label=<gini = 0.0<br/>samples = 5<br/>value = [0, 0, 0, 5, 0, 0, 0]>, fillcolor="#39e5e2"] ;
581 -> 582 ;
583 [label=<gini = 0.0<br/>samples = 2<br/>value = [0, 0, 0, 0, 0, 2, 0]>, fillcolor="#b139e5"] ;
581 -> 583 ;
584 [label=<gini = 0.0<br/>samples = 3<br/>value = [0, 0, 3, 0, 0, 0, 0]>, fillcolor="#39e54d"] ;
580 -> 584 ;
585 [label=<gini = 0.0<br/>samples = 6<br/>value = [0, 0, 6, 0, 0, 0, 0]>, fillcolor="#39e54d"] ;
579 -> 585 ;
586 [label=<Horizontal_Distance_To_Fire_Points &le; 355.5<br/>gini = 0.56<br/>samples = 59<br/>value = [0, 0, 29, 26, 0, 4, 0]>, fillcolor="#edfdef"] ;
536 -> 586 ;
587 [label=<gini = 0.0<br/>samples = 20<br/>value = [0, 0, 20, 0, 0, 0, 0]>, fillcolor="#39e54d"] ;
586 -> 587 ;
588 [label=<Horizontal_Distance_To_Hydrology &le; 171.0<br/>gini = 0.492<br/>samples = 39<br/>value = [0, 0, 9, 26, 0, 4, 0]>, fillcolor="#8ff0ef"] ;
586 -> 588 ;
589 [label=<Horizontal_Distance_To_Roadways &le; 1086.0<br/>gini = 0.397<br/>samples = 11<br/>value = [0, 0, 8, 3, 0, 0, 0]>, fillcolor="#83ef90"] ;
588 -> 589 ;
590 [label=<gini = 0.0<br/>samples = 5<br/>value = [0, 0, 5, 0, 0, 0, 0]>, fillcolor="#39e54d"] ;
589 -> 590 ;
591 [label=<Horizontal_Distance_To_Roadways &le; 1235.0<br/>gini = 0.5<br/>samples = 6<br/>value = [0, 0, 3, 3, 0, 0, 0]>, fillcolor="#ffffff"] ;
589 -> 591 ;
592 [label=<gini = 0.0<br/>samples = 2<br/>value = [0, 0, 0, 2, 0, 0, 0]>, fillcolor="#39e5e2"] ;
591 -> 592 ;
593 [label=<Vertical_Distance_To_Hydrology &le; 1.0<br/>gini = 0.375<br/>samples = 4<br/>value = [0, 0, 3, 1, 0, 0, 0]>, fillcolor="#7bee88"] ;
591 -> 593 ;
594 [label=<gini = 0.0<br/>samples = 1<br/>value = [0, 0, 0, 1, 0, 0, 0]>, fillcolor="#39e5e2"] ;
593 -> 594 ;
595 [label=<gini = 0.0<br/>samples = 3<br/>value = [0, 0, 3, 0, 0, 0, 0]>, fillcolor="#39e54d"] ;
593 -> 595 ;
596 [label=<Aspect &le; 295.5<br/>gini = 0.304<br/>samples = 28<br/>value = [0, 0, 1, 23, 0, 4, 0]>, fillcolor="#62eae8"] ;
588 -> 596 ;
597 [label=<Aspect &le; 34.5<br/>gini = 0.15<br/>samples = 25<br/>value = [0, 0, 1, 23, 0, 1, 0]>, fillcolor="#49e7e4"] ;
596 -> 597 ;
598 [label=<gini = 0.0<br/>samples = 1<br/>value = [0, 0, 0, 0, 0, 1, 0]>, fillcolor="#b139e5"] ;
597 -> 598 ;
599 [label=<Elevation &le; 2299.0<br/>gini = 0.08<br/>samples = 24<br/>value = [0, 0, 1, 23, 0, 0, 0]>, fillcolor="#42e6e3"] ;
597 -> 599 ;
600 [label=<gini = 0.0<br/>samples = 1<br/>value = [0, 0, 1, 0, 0, 0, 0]>, fillcolor="#39e54d"] ;
599 -> 600 ;
601 [label=<gini = 0.0<br/>samples = 23<br/>value = [0, 0, 0, 23, 0, 0, 0]>, fillcolor="#39e5e2"] ;
599 -> 601 ;
602 [label=<gini = 0.0<br/>samples = 3<br/>value = [0, 0, 0, 0, 0, 3, 0]>, fillcolor="#b139e5"] ;
596 -> 602 ;
603 [label=<Aspect &le; 63.5<br/>gini = 0.183<br/>samples = 109<br/>value = [0, 0, 10, 98, 0, 1, 0]>, fillcolor="#4fe8e5"] ;
513 -> 603 ;
604 [label=<Horizontal_Distance_To_Fire_Points &le; 993.0<br/>gini = 0.375<br/>samples = 8<br/>value = [0, 0, 6, 2, 0, 0, 0]>, fillcolor="#7bee88"] ;
603 -> 604 ;
605 [label=<gini = 0.0<br/>samples = 6<br/>value = [0, 0, 6, 0, 0, 0, 0]>, fillcolor="#39e54d"] ;
604 -> 605 ;
606 [label=<gini = 0.0<br/>samples = 2<br/>value = [0, 0, 0, 2, 0, 0, 0]>, fillcolor="#39e5e2"] ;
604 -> 606 ;
607 [label=<Aspect &le; 294.5<br/>gini = 0.095<br/>samples = 101<br/>value = [0, 0, 4, 96, 0, 1, 0]>, fillcolor="#43e6e3"] ;
603 -> 607 ;
608 [label=<Horizontal_Distance_To_Fire_Points &le; 375.5<br/>gini = 0.059<br/>samples = 99<br/>value = [0, 0, 3, 96, 0, 0, 0]>, fillcolor="#3fe6e3"] ;
607 -> 608 ;
609 [label=<gini = 0.0<br/>samples = 1<br/>value = [0, 0, 1, 0, 0, 0, 0]>, fillcolor="#39e54d"] ;
608 -> 609 ;
610 [label=<Soil_Type10 &le; 0.5<br/>gini = 0.04<br/>samples = 98<br/>value = [0, 0, 2, 96, 0, 0, 0]>, fillcolor="#3de6e3"] ;
608 -> 610 ;
611 [label=<Vertical_Distance_To_Hydrology &le; 16.5<br/>gini = 0.02<br/>samples = 97<br/>value = [0, 0, 1, 96, 0, 0, 0]>, fillcolor="#3be5e2"] ;
610 -> 611 ;
612 [label=<Horizontal_Distance_To_Roadways &le; 1110.0<br/>gini = 0.198<br/>samples = 9<br/>value = [0, 0, 1, 8, 0, 0, 0]>, fillcolor="#52e8e6"] ;
611 -> 612 ;
613 [label=<gini = 0.0<br/>samples = 1<br/>value = [0, 0, 1, 0, 0, 0, 0]>, fillcolor="#39e54d"] ;
612 -> 613 ;
614 [label=<gini = 0.0<br/>samples = 8<br/>value = [0, 0, 0, 8, 0, 0, 0]>, fillcolor="#39e5e2"] ;
612 -> 614 ;
615 [label=<gini = 0.0<br/>samples = 88<br/>value = [0, 0, 0, 88, 0, 0, 0]>, fillcolor="#39e5e2"] ;
611 -> 615 ;
616 [label=<gini = 0.0<br/>samples = 1<br/>value = [0, 0, 1, 0, 0, 0, 0]>, fillcolor="#39e54d"] ;
610 -> 616 ;
617 [label=<Slope &le; 7.0<br/>gini = 0.5<br/>samples = 2<br/>value = [0, 0, 1, 0, 0, 1, 0]>, fillcolor="#ffffff"] ;
607 -> 617 ;
618 [label=<gini = 0.0<br/>samples = 1<br/>value = [0, 0, 0, 0, 0, 1, 0]>, fillcolor="#b139e5"] ;
617 -> 618 ;
619 [label=<gini = 0.0<br/>samples = 1<br/>value = [0, 0, 1, 0, 0, 0, 0]>, fillcolor="#39e54d"] ;
617 -> 619 ;
620 [label=<Horizontal_Distance_To_Roadways &le; 191.0<br/>gini = 0.167<br/>samples = 601<br/>value = [0, 0, 51, 546, 0, 4, 0]>, fillcolor="#4de8e5"] ;
392 -> 620 ;
621 [label=<Vertical_Distance_To_Hydrology &le; 11.5<br/>gini = 0.357<br/>samples = 14<br/>value = [0, 0, 11, 1, 0, 2, 0]>, fillcolor="#6bec7a"] ;
620 -> 621 ;
622 [label=<gini = 0.0<br/>samples = 2<br/>value = [0, 0, 0, 0, 0, 2, 0]>, fillcolor="#b139e5"] ;
621 -> 622 ;
623 [label=<Horizontal_Distance_To_Fire_Points &le; 1353.0<br/>gini = 0.153<br/>samples = 12<br/>value = [0, 0, 11, 1, 0, 0, 0]>, fillcolor="#4be75d"] ;
621 -> 623 ;
624 [label=<gini = 0.0<br/>samples = 11<br/>value = [0, 0, 11, 0, 0, 0, 0]>, fillcolor="#39e54d"] ;
623 -> 624 ;
625 [label=<gini = 0.0<br/>samples = 1<br/>value = [0, 0, 0, 1, 0, 0, 0]>, fillcolor="#39e5e2"] ;
623 -> 625 ;
626 [label=<Horizontal_Distance_To_Roadways &le; 1449.5<br/>gini = 0.133<br/>samples = 587<br/>value = [0, 0, 40, 545, 0, 2, 0]>, fillcolor="#48e7e4"] ;
620 -> 626 ;
627 [label=<Elevation &le; 2340.0<br/>gini = 0.107<br/>samples = 569<br/>value = [0, 0, 30, 537, 0, 2, 0]>, fillcolor="#45e7e4"] ;
626 -> 627 ;
628 [label=<Elevation &le; 2021.0<br/>gini = 0.066<br/>samples = 528<br/>value = [0, 0, 17, 510, 0, 1, 0]>, fillcolor="#40e6e3"] ;
627 -> 628 ;
629 [label=<gini = 0.0<br/>samples = 3<br/>value = [0, 0, 3, 0, 0, 0, 0]>, fillcolor="#39e54d"] ;
628 -> 629 ;
630 [label=<Horizontal_Distance_To_Roadways &le; 323.5<br/>gini = 0.056<br/>samples = 525<br/>value = [0, 0, 14, 510, 0, 1, 0]>, fillcolor="#3fe6e3"] ;
628 -> 630 ;
631 [label=<Horizontal_Distance_To_Hydrology &le; 222.0<br/>gini = 0.405<br/>samples = 23<br/>value = [0, 0, 5, 17, 0, 1, 0]>, fillcolor="#7beeec"] ;
630 -> 631 ;
632 [label=<Slope &le; 21.5<br/>gini = 0.188<br/>samples = 19<br/>value = [0, 0, 2, 17, 0, 0, 0]>, fillcolor="#50e8e5"] ;
631 -> 632 ;
633 [label=<Horizontal_Distance_To_Fire_Points &le; 1373.0<br/>gini = 0.444<br/>samples = 3<br/>value = [0, 0, 2, 1, 0, 0, 0]>, fillcolor="#9cf2a6"] ;
632 -> 633 ;
634 [label=<gini = 0.0<br/>samples = 2<br/>value = [0, 0, 2, 0, 0, 0, 0]>, fillcolor="#39e54d"] ;
633 -> 634 ;
635 [label=<gini = 0.0<br/>samples = 1<br/>value = [0, 0, 0, 1, 0, 0, 0]>, fillcolor="#39e5e2"] ;
633 -> 635 ;
636 [label=<gini = 0.0<br/>samples = 16<br/>value = [0, 0, 0, 16, 0, 0, 0]>, fillcolor="#39e5e2"] ;
632 -> 636 ;
637 [label=<Aspect &le; 92.0<br/>gini = 0.375<br/>samples = 4<br/>value = [0, 0, 3, 0, 0, 1, 0]>, fillcolor="#7bee88"] ;
631 -> 637 ;
638 [label=<gini = 0.0<br/>samples = 1<br/>value = [0, 0, 0, 0, 0, 1, 0]>, fillcolor="#b139e5"] ;
637 -> 638 ;
639 [label=<gini = 0.0<br/>samples = 3<br/>value = [0, 0, 3, 0, 0, 0, 0]>, fillcolor="#39e54d"] ;
637 -> 639 ;
640 [label=<Horizontal_Distance_To_Roadways &le; 1149.5<br/>gini = 0.035<br/>samples = 502<br/>value = [0, 0, 9, 493, 0, 0, 0]>, fillcolor="#3de5e3"] ;
630 -> 640 ;
641 [label=<Elevation &le; 2070.5<br/>gini = 0.005<br/>samples = 366<br/>value = [0, 0, 1, 365, 0, 0, 0]>, fillcolor="#3ae5e2"] ;
640 -> 641 ;
642 [label=<Vertical_Distance_To_Hydrology &le; 93.0<br/>gini = 0.32<br/>samples = 5<br/>value = [0, 0, 1, 4, 0, 0, 0]>, fillcolor="#6aece9"] ;
641 -> 642 ;
643 [label=<gini = 0.0<br/>samples = 4<br/>value = [0, 0, 0, 4, 0, 0, 0]>, fillcolor="#39e5e2"] ;
642 -> 643 ;
644 [label=<gini = 0.0<br/>samples = 1<br/>value = [0, 0, 1, 0, 0, 0, 0]>, fillcolor="#39e54d"] ;
642 -> 644 ;
645 [label=<gini = 0.0<br/>samples = 361<br/>value = [0, 0, 0, 361, 0, 0, 0]>, fillcolor="#39e5e2"] ;
641 -> 645 ;
646 [label=<Horizontal_Distance_To_Fire_Points &le; 389.0<br/>gini = 0.111<br/>samples = 136<br/>value = [0, 0, 8, 128, 0, 0, 0]>, fillcolor="#45e7e4"] ;
640 -> 646 ;
647 [label=<gini = 0.0<br/>samples = 2<br/>value = [0, 0, 2, 0, 0, 0, 0]>, fillcolor="#39e54d"] ;
646 -> 647 ;
648 [label=<Elevation &le; 2313.5<br/>gini = 0.086<br/>samples = 134<br/>value = [0, 0, 6, 128, 0, 0, 0]>, fillcolor="#42e6e3"] ;
646 -> 648 ;
649 [label=<Horizontal_Distance_To_Roadways &le; 1151.5<br/>gini = 0.059<br/>samples = 131<br/>value = [0, 0, 4, 127, 0, 0, 0]>, fillcolor="#3fe6e3"] ;
648 -> 649 ;
650 [label=<gini = 0.0<br/>samples = 1<br/>value = [0, 0, 1, 0, 0, 0, 0]>, fillcolor="#39e54d"] ;
649 -> 650 ;
651 [label=<Elevation &le; 2283.0<br/>gini = 0.045<br/>samples = 130<br/>value = [0, 0, 3, 127, 0, 0, 0]>, fillcolor="#3ee6e3"] ;
649 -> 651 ;
652 [label=<gini = 0.0<br/>samples = 104<br/>value = [0, 0, 0, 104, 0, 0, 0]>, fillcolor="#39e5e2"] ;
651 -> 652 ;
653 [label=<Horizontal_Distance_To_Fire_Points &le; 679.0<br/>gini = 0.204<br/>samples = 26<br/>value = [0, 0, 3, 23, 0, 0, 0]>, fillcolor="#53e8e6"] ;
651 -> 653 ;
654 [label=<Horizontal_Distance_To_Roadways &le; 1191.5<br/>gini = 0.375<br/>samples = 4<br/>value = [0, 0, 3, 1, 0, 0, 0]>, fillcolor="#7bee88"] ;
653 -> 654 ;
655 [label=<gini = 0.0<br/>samples = 1<br/>value = [0, 0, 0, 1, 0, 0, 0]>, fillcolor="#39e5e2"] ;
654 -> 655 ;
656 [label=<gini = 0.0<br/>samples = 3<br/>value = [0, 0, 3, 0, 0, 0, 0]>, fillcolor="#39e54d"] ;
654 -> 656 ;
657 [label=<gini = 0.0<br/>samples = 22<br/>value = [0, 0, 0, 22, 0, 0, 0]>, fillcolor="#39e5e2"] ;
653 -> 657 ;
658 [label=<Hillshade_9am &le; 248.5<br/>gini = 0.444<br/>samples = 3<br/>value = [0, 0, 2, 1, 0, 0, 0]>, fillcolor="#9cf2a6"] ;
648 -> 658 ;
659 [label=<gini = 0.0<br/>samples = 2<br/>value = [0, 0, 2, 0, 0, 0, 0]>, fillcolor="#39e54d"] ;
658 -> 659 ;
660 [label=<gini = 0.0<br/>samples = 1<br/>value = [0, 0, 0, 1, 0, 0, 0]>, fillcolor="#39e5e2"] ;
658 -> 660 ;
661 [label=<Vertical_Distance_To_Hydrology &le; 99.5<br/>gini = 0.465<br/>samples = 41<br/>value = [0, 0, 13, 27, 0, 1, 0]>, fillcolor="#9cf2f0"] ;
627 -> 661 ;
662 [label=<Horizontal_Distance_To_Fire_Points &le; 532.5<br/>gini = 0.32<br/>samples = 16<br/>value = [0, 0, 13, 2, 0, 1, 0]>, fillcolor="#63eb73"] ;
661 -> 662 ;
663 [label=<Vertical_Distance_To_Hydrology &le; 33.5<br/>gini = 0.444<br/>samples = 3<br/>value = [0, 0, 0, 2, 0, 1, 0]>, fillcolor="#9cf2f0"] ;
662 -> 663 ;
664 [label=<gini = 0.0<br/>samples = 1<br/>value = [0, 0, 0, 0, 0, 1, 0]>, fillcolor="#b139e5"] ;
663 -> 664 ;
665 [label=<gini = 0.0<br/>samples = 2<br/>value = [0, 0, 0, 2, 0, 0, 0]>, fillcolor="#39e5e2"] ;
663 -> 665 ;
666 [label=<gini = 0.0<br/>samples = 13<br/>value = [0, 0, 13, 0, 0, 0, 0]>, fillcolor="#39e54d"] ;
662 -> 666 ;
667 [label=<gini = 0.0<br/>samples = 25<br/>value = [0, 0, 0, 25, 0, 0, 0]>, fillcolor="#39e5e2"] ;
661 -> 667 ;
668 [label=<Hillshade_3pm &le; 84.0<br/>gini = 0.494<br/>samples = 18<br/>value = [0, 0, 10, 8, 0, 0, 0]>, fillcolor="#d7fadb"] ;
626 -> 668 ;
669 [label=<gini = 0.0<br/>samples = 8<br/>value = [0, 0, 8, 0, 0, 0, 0]>, fillcolor="#39e54d"] ;
668 -> 669 ;
670 [label=<Elevation &le; 2299.0<br/>gini = 0.32<br/>samples = 10<br/>value = [0, 0, 2, 8, 0, 0, 0]>, fillcolor="#6aece9"] ;
668 -> 670 ;
671 [label=<gini = 0.0<br/>samples = 8<br/>value = [0, 0, 0, 8, 0, 0, 0]>, fillcolor="#39e5e2"] ;
670 -> 671 ;
672 [label=<gini = 0.0<br/>samples = 2<br/>value = [0, 0, 2, 0, 0, 0, 0]>, fillcolor="#39e54d"] ;
670 -> 672 ;
673 [label=<Wilderness_Area1 &le; 0.5<br/>gini = 0.658<br/>samples = 2319<br/>value = [11, 180, 870, 96, 155, 1007, 0]>, fillcolor="#f8ecfd"] ;
1 -> 673 ;
674 [label=<Soil_Type4 &le; 0.5<br/>gini = 0.613<br/>samples = 2153<br/>value = [9, 71, 870, 96, 100, 1007, 0]>, fillcolor="#f7eafc"] ;
673 -> 674 ;
675 [label=<Soil_Type10 &le; 0.5<br/>gini = 0.608<br/>samples = 1796<br/>value = [8, 70, 575, 96, 93, 954, 0]>, fillcolor="#e7c2f7"] ;
674 -> 675 ;
676 [label=<Horizontal_Distance_To_Hydrology &le; 76.0<br/>gini = 0.675<br/>samples = 1086<br/>value = [3, 49, 418, 92, 89, 435, 0]>, fillcolor="#fdfafe"] ;
675 -> 676 ;
677 [label=<Wilderness_Area3 &le; 0.5<br/>gini = 0.649<br/>samples = 341<br/>value = [3, 14, 62, 47, 32, 183, 0]>, fillcolor="#dda9f4"] ;
676 -> 677 ;
678 [label=<Horizontal_Distance_To_Hydrology &le; 15.0<br/>gini = 0.627<br/>samples = 94<br/>value = [0, 1, 19, 47, 0, 27, 0]>, fillcolor="#c4f7f6"] ;
677 -> 678 ;
679 [label=<Soil_Type16 &le; 0.5<br/>gini = 0.293<br/>samples = 47<br/>value = [0, 0, 6, 39, 0, 2, 0]>, fillcolor="#60eae8"] ;
678 -> 679 ;
680 [label=<Horizontal_Distance_To_Fire_Points &le; 399.0<br/>gini = 0.201<br/>samples = 44<br/>value = [0, 0, 5, 39, 0, 0, 0]>, fillcolor="#52e8e6"] ;
679 -> 680 ;
681 [label=<Hillshade_3pm &le; 92.0<br/>gini = 0.444<br/>samples = 3<br/>value = [0, 0, 2, 1, 0, 0, 0]>, fillcolor="#9cf2a6"] ;
680 -> 681 ;
682 [label=<gini = 0.0<br/>samples = 1<br/>value = [0, 0, 0, 1, 0, 0, 0]>, fillcolor="#39e5e2"] ;
681 -> 682 ;
683 [label=<gini = 0.0<br/>samples = 2<br/>value = [0, 0, 2, 0, 0, 0, 0]>, fillcolor="#39e54d"] ;
681 -> 683 ;
684 [label=<Horizontal_Distance_To_Fire_Points &le; 1610.0<br/>gini = 0.136<br/>samples = 41<br/>value = [0, 0, 3, 38, 0, 0, 0]>, fillcolor="#49e7e4"] ;
680 -> 684 ;
685 [label=<Horizontal_Distance_To_Roadways &le; 893.0<br/>gini = 0.095<br/>samples = 40<br/>value = [0, 0, 2, 38, 0, 0, 0]>, fillcolor="#43e6e4"] ;
684 -> 685 ;
686 [label=<gini = 0.0<br/>samples = 33<br/>value = [0, 0, 0, 33, 0, 0, 0]>, fillcolor="#39e5e2"] ;
685 -> 686 ;
687 [label=<Horizontal_Distance_To_Fire_Points &le; 1019.5<br/>gini = 0.408<br/>samples = 7<br/>value = [0, 0, 2, 5, 0, 0, 0]>, fillcolor="#88efee"] ;
685 -> 687 ;
688 [label=<gini = 0.0<br/>samples = 5<br/>value = [0, 0, 0, 5, 0, 0, 0]>, fillcolor="#39e5e2"] ;
687 -> 688 ;
689 [label=<gini = 0.0<br/>samples = 2<br/>value = [0, 0, 2, 0, 0, 0, 0]>, fillcolor="#39e54d"] ;
687 -> 689 ;
690 [label=<gini = 0.0<br/>samples = 1<br/>value = [0, 0, 1, 0, 0, 0, 0]>, fillcolor="#39e54d"] ;
684 -> 690 ;
691 [label=<Horizontal_Distance_To_Fire_Points &le; 1290.0<br/>gini = 0.444<br/>samples = 3<br/>value = [0, 0, 1, 0, 0, 2, 0]>, fillcolor="#d89cf2"] ;
679 -> 691 ;
692 [label=<gini = 0.0<br/>samples = 2<br/>value = [0, 0, 0, 0, 0, 2, 0]>, fillcolor="#b139e5"] ;
691 -> 692 ;
693 [label=<gini = 0.0<br/>samples = 1<br/>value = [0, 0, 1, 0, 0, 0, 0]>, fillcolor="#39e54d"] ;
691 -> 693 ;
694 [label=<Hillshade_3pm &le; 123.0<br/>gini = 0.611<br/>samples = 47<br/>value = [0, 1, 13, 8, 0, 25, 0]>, fillcolor="#e3b9f6"] ;
678 -> 694 ;
695 [label=<Soil_Type5 &le; 0.5<br/>gini = 0.586<br/>samples = 18<br/>value = [0, 0, 10, 5, 0, 3, 0]>, fillcolor="#b3f5bb"] ;
694 -> 695 ;
696 [label=<Elevation &le; 2473.5<br/>gini = 0.379<br/>samples = 13<br/>value = [0, 0, 10, 2, 0, 1, 0]>, fillcolor="#6fec7e"] ;
695 -> 696 ;
697 [label=<Aspect &le; 87.0<br/>gini = 0.278<br/>samples = 12<br/>value = [0, 0, 10, 2, 0, 0, 0]>, fillcolor="#61ea71"] ;
696 -> 697 ;
698 [label=<gini = 0.0<br/>samples = 7<br/>value = [0, 0, 7, 0, 0, 0, 0]>, fillcolor="#39e54d"] ;
697 -> 698 ;
699 [label=<Horizontal_Distance_To_Fire_Points &le; 1310.5<br/>gini = 0.48<br/>samples = 5<br/>value = [0, 0, 3, 2, 0, 0, 0]>, fillcolor="#bdf6c4"] ;
697 -> 699 ;
700 [label=<Horizontal_Distance_To_Roadways &le; 888.5<br/>gini = 0.444<br/>samples = 3<br/>value = [0, 0, 1, 2, 0, 0, 0]>, fillcolor="#9cf2f0"] ;
699 -> 700 ;
701 [label=<gini = 0.0<br/>samples = 2<br/>value = [0, 0, 0, 2, 0, 0, 0]>, fillcolor="#39e5e2"] ;
700 -> 701 ;
702 [label=<gini = 0.0<br/>samples = 1<br/>value = [0, 0, 1, 0, 0, 0, 0]>, fillcolor="#39e54d"] ;
700 -> 702 ;
703 [label=<gini = 0.0<br/>samples = 2<br/>value = [0, 0, 2, 0, 0, 0, 0]>, fillcolor="#39e54d"] ;
699 -> 703 ;
704 [label=<gini = 0.0<br/>samples = 1<br/>value = [0, 0, 0, 0, 0, 1, 0]>, fillcolor="#b139e5"] ;
696 -> 704 ;
705 [label=<Vertical_Distance_To_Hydrology &le; 11.5<br/>gini = 0.48<br/>samples = 5<br/>value = [0, 0, 0, 3, 0, 2, 0]>, fillcolor="#bdf6f5"] ;
695 -> 705 ;
706 [label=<gini = 0.0<br/>samples = 3<br/>value = [0, 0, 0, 3, 0, 0, 0]>, fillcolor="#39e5e2"] ;
705 -> 706 ;
707 [label=<gini = 0.0<br/>samples = 2<br/>value = [0, 0, 0, 0, 0, 2, 0]>, fillcolor="#b139e5"] ;
705 -> 707 ;
708 [label=<Vertical_Distance_To_Hydrology &le; 11.0<br/>gini = 0.402<br/>samples = 29<br/>value = [0, 1, 3, 3, 0, 22, 0]>, fillcolor="#c66eec"] ;
694 -> 708 ;
709 [label=<Hillshade_3pm &le; 170.0<br/>gini = 0.275<br/>samples = 26<br/>value = [0, 1, 1, 2, 0, 22, 0]>, fillcolor="#be5ae9"] ;
708 -> 709 ;
710 [label=<Hillshade_Noon &le; 206.5<br/>gini = 0.153<br/>samples = 24<br/>value = [0, 0, 0, 2, 0, 22, 0]>, fillcolor="#b84be7"] ;
709 -> 710 ;
711 [label=<gini = 0.0<br/>samples = 1<br/>value = [0, 0, 0, 1, 0, 0, 0]>, fillcolor="#39e5e2"] ;
710 -> 711 ;
712 [label=<Hillshade_9am &le; 232.5<br/>gini = 0.083<br/>samples = 23<br/>value = [0, 0, 0, 1, 0, 22, 0]>, fillcolor="#b542e6"] ;
710 -> 712 ;
713 [label=<gini = 0.0<br/>samples = 19<br/>value = [0, 0, 0, 0, 0, 19, 0]>, fillcolor="#b139e5"] ;
712 -> 713 ;
714 [label=<Horizontal_Distance_To_Roadways &le; 397.0<br/>gini = 0.375<br/>samples = 4<br/>value = [0, 0, 0, 1, 0, 3, 0]>, fillcolor="#cb7bee"] ;
712 -> 714 ;
715 [label=<gini = 0.0<br/>samples = 1<br/>value = [0, 0, 0, 1, 0, 0, 0]>, fillcolor="#39e5e2"] ;
714 -> 715 ;
716 [label=<gini = 0.0<br/>samples = 3<br/>value = [0, 0, 0, 0, 0, 3, 0]>, fillcolor="#b139e5"] ;
714 -> 716 ;
717 [label=<Hillshade_9am &le; 194.0<br/>gini = 0.5<br/>samples = 2<br/>value = [0, 1, 1, 0, 0, 0, 0]>, fillcolor="#ffffff"] ;
709 -> 717 ;
718 [label=<gini = 0.0<br/>samples = 1<br/>value = [0, 1, 0, 0, 0, 0, 0]>, fillcolor="#b7e539"] ;
717 -> 718 ;
719 [label=<gini = 0.0<br/>samples = 1<br/>value = [0, 0, 1, 0, 0, 0, 0]>, fillcolor="#39e54d"] ;
717 -> 719 ;
720 [label=<Soil_Type6 &le; 0.5<br/>gini = 0.444<br/>samples = 3<br/>value = [0, 0, 2, 1, 0, 0, 0]>, fillcolor="#9cf2a6"] ;
708 -> 720 ;
721 [label=<gini = 0.0<br/>samples = 1<br/>value = [0, 0, 0, 1, 0, 0, 0]>, fillcolor="#39e5e2"] ;
720 -> 721 ;
722 [label=<gini = 0.0<br/>samples = 2<br/>value = [0, 0, 2, 0, 0, 0, 0]>, fillcolor="#39e54d"] ;
720 -> 722 ;
723 [label=<Elevation &le; 2584.5<br/>gini = 0.551<br/>samples = 247<br/>value = [3, 13, 43, 0, 32, 156, 0]>, fillcolor="#d491f1"] ;
677 -> 723 ;
724 [label=<Soil_Type3 &le; 0.5<br/>gini = 0.357<br/>samples = 157<br/>value = [0, 3, 26, 0, 5, 123, 0]>, fillcolor="#c56cec"] ;
723 -> 724 ;
725 [label=<Hillshade_Noon &le; 237.5<br/>gini = 0.317<br/>samples = 146<br/>value = [0, 3, 19, 0, 5, 119, 0]>, fillcolor="#c263eb"] ;
724 -> 725 ;
726 [label=<Hillshade_9am &le; 237.0<br/>gini = 0.209<br/>samples = 97<br/>value = [0, 3, 6, 0, 2, 86, 0]>, fillcolor="#ba51e8"] ;
725 -> 726 ;
727 [label=<Aspect &le; 10.0<br/>gini = 0.099<br/>samples = 78<br/>value = [0, 1, 1, 0, 2, 74, 0]>, fillcolor="#b543e6"] ;
726 -> 727 ;
728 [label=<Elevation &le; 2533.5<br/>gini = 0.444<br/>samples = 3<br/>value = [0, 0, 0, 0, 1, 2, 0]>, fillcolor="#d89cf2"] ;
727 -> 728 ;
729 [label=<gini = 0.0<br/>samples = 2<br/>value = [0, 0, 0, 0, 0, 2, 0]>, fillcolor="#b139e5"] ;
728 -> 729 ;
730 [label=<gini = 0.0<br/>samples = 1<br/>value = [0, 0, 0, 0, 1, 0, 0]>, fillcolor="#3956e5"] ;
728 -> 730 ;
731 [label=<Aspect &le; 330.5<br/>gini = 0.078<br/>samples = 75<br/>value = [0, 1, 1, 0, 1, 72, 0]>, fillcolor="#b441e6"] ;
727 -> 731 ;
732 [label=<Slope &le; 4.5<br/>gini = 0.031<br/>samples = 63<br/>value = [0, 0, 1, 0, 0, 62, 0]>, fillcolor="#b23ce5"] ;
731 -> 732 ;
733 [label=<Hillshade_Noon &le; 230.5<br/>gini = 0.219<br/>samples = 8<br/>value = [0, 0, 1, 0, 0, 7, 0]>, fillcolor="#bc55e9"] ;
732 -> 733 ;
734 [label=<gini = 0.0<br/>samples = 1<br/>value = [0, 0, 1, 0, 0, 0, 0]>, fillcolor="#39e54d"] ;
733 -> 734 ;
735 [label=<gini = 0.0<br/>samples = 7<br/>value = [0, 0, 0, 0, 0, 7, 0]>, fillcolor="#b139e5"] ;
733 -> 735 ;
736 [label=<gini = 0.0<br/>samples = 55<br/>value = [0, 0, 0, 0, 0, 55, 0]>, fillcolor="#b139e5"] ;
732 -> 736 ;
737 [label=<Horizontal_Distance_To_Hydrology &le; 54.5<br/>gini = 0.292<br/>samples = 12<br/>value = [0, 1, 0, 0, 1, 10, 0]>, fillcolor="#bf5dea"] ;
731 -> 737 ;
738 [label=<Horizontal_Distance_To_Fire_Points &le; 735.5<br/>gini = 0.165<br/>samples = 11<br/>value = [0, 1, 0, 0, 0, 10, 0]>, fillcolor="#b94de8"] ;
737 -> 738 ;
739 [label=<Elevation &le; 2534.0<br/>gini = 0.5<br/>samples = 2<br/>value = [0, 1, 0, 0, 0, 1, 0]>, fillcolor="#ffffff"] ;
738 -> 739 ;
740 [label=<gini = 0.0<br/>samples = 1<br/>value = [0, 0, 0, 0, 0, 1, 0]>, fillcolor="#b139e5"] ;
739 -> 740 ;
741 [label=<gini = 0.0<br/>samples = 1<br/>value = [0, 1, 0, 0, 0, 0, 0]>, fillcolor="#b7e539"] ;
739 -> 741 ;
742 [label=<gini = 0.0<br/>samples = 9<br/>value = [0, 0, 0, 0, 0, 9, 0]>, fillcolor="#b139e5"] ;
738 -> 742 ;
743 [label=<gini = 0.0<br/>samples = 1<br/>value = [0, 0, 0, 0, 1, 0, 0]>, fillcolor="#3956e5"] ;
737 -> 743 ;
744 [label=<Elevation &le; 2466.0<br/>gini = 0.521<br/>samples = 19<br/>value = [0, 2, 5, 0, 0, 12, 0]>, fillcolor="#d89cf2"] ;
726 -> 744 ;
745 [label=<gini = 0.0<br/>samples = 6<br/>value = [0, 0, 0, 0, 0, 6, 0]>, fillcolor="#b139e5"] ;
744 -> 745 ;
746 [label=<Horizontal_Distance_To_Fire_Points &le; 1289.0<br/>gini = 0.615<br/>samples = 13<br/>value = [0, 2, 5, 0, 0, 6, 0]>, fillcolor="#f5e6fc"] ;
744 -> 746 ;
747 [label=<Soil_Type11 &le; 0.5<br/>gini = 0.531<br/>samples = 8<br/>value = [0, 1, 5, 0, 0, 2, 0]>, fillcolor="#9cf2a6"] ;
746 -> 747 ;
748 [label=<gini = 0.0<br/>samples = 5<br/>value = [0, 0, 5, 0, 0, 0, 0]>, fillcolor="#39e54d"] ;
747 -> 748 ;
749 [label=<Horizontal_Distance_To_Hydrology &le; 36.0<br/>gini = 0.444<br/>samples = 3<br/>value = [0, 1, 0, 0, 0, 2, 0]>, fillcolor="#d89cf2"] ;
747 -> 749 ;
750 [label=<gini = 0.0<br/>samples = 2<br/>value = [0, 0, 0, 0, 0, 2, 0]>, fillcolor="#b139e5"] ;
749 -> 750 ;
751 [label=<gini = 0.0<br/>samples = 1<br/>value = [0, 1, 0, 0, 0, 0, 0]>, fillcolor="#b7e539"] ;
749 -> 751 ;
752 [label=<Slope &le; 12.0<br/>gini = 0.32<br/>samples = 5<br/>value = [0, 1, 0, 0, 0, 4, 0]>, fillcolor="#c46aec"] ;
746 -> 752 ;
753 [label=<gini = 0.0<br/>samples = 1<br/>value = [0, 1, 0, 0, 0, 0, 0]>, fillcolor="#b7e539"] ;
752 -> 753 ;
754 [label=<gini = 0.0<br/>samples = 4<br/>value = [0, 0, 0, 0, 0, 4, 0]>, fillcolor="#b139e5"] ;
752 -> 754 ;
755 [label=<Horizontal_Distance_To_Hydrology &le; 15.0<br/>gini = 0.472<br/>samples = 49<br/>value = [0, 0, 13, 0, 3, 33, 0]>, fillcolor="#d491f1"] ;
725 -> 755 ;
756 [label=<Elevation &le; 2552.0<br/>gini = 0.19<br/>samples = 29<br/>value = [0, 0, 2, 0, 1, 26, 0]>, fillcolor="#ba4fe8"] ;
755 -> 756 ;
757 [label=<Horizontal_Distance_To_Roadways &le; 2173.0<br/>gini = 0.071<br/>samples = 27<br/>value = [0, 0, 1, 0, 0, 26, 0]>, fillcolor="#b441e6"] ;
756 -> 757 ;
758 [label=<gini = 0.0<br/>samples = 26<br/>value = [0, 0, 0, 0, 0, 26, 0]>, fillcolor="#b139e5"] ;
757 -> 758 ;
759 [label=<gini = 0.0<br/>samples = 1<br/>value = [0, 0, 1, 0, 0, 0, 0]>, fillcolor="#39e54d"] ;
757 -> 759 ;
760 [label=<Hillshade_3pm &le; 148.5<br/>gini = 0.5<br/>samples = 2<br/>value = [0, 0, 1, 0, 1, 0, 0]>, fillcolor="#ffffff"] ;
756 -> 760 ;
761 [label=<gini = 0.0<br/>samples = 1<br/>value = [0, 0, 1, 0, 0, 0, 0]>, fillcolor="#39e54d"] ;
760 -> 761 ;
762 [label=<gini = 0.0<br/>samples = 1<br/>value = [0, 0, 0, 0, 1, 0, 0]>, fillcolor="#3956e5"] ;
760 -> 762 ;
763 [label=<Elevation &le; 2498.5<br/>gini = 0.565<br/>samples = 20<br/>value = [0, 0, 11, 0, 2, 7, 0]>, fillcolor="#c2f7c8"] ;
755 -> 763 ;
764 [label=<Vertical_Distance_To_Hydrology &le; 3.5<br/>gini = 0.463<br/>samples = 11<br/>value = [0, 0, 4, 0, 0, 7, 0]>, fillcolor="#deaaf4"] ;
763 -> 764 ;
765 [label=<gini = 0.0<br/>samples = 5<br/>value = [0, 0, 0, 0, 0, 5, 0]>, fillcolor="#b139e5"] ;
764 -> 765 ;
